{"learner":{"attributes":{"scikit_learn":"{\"_estimator_type\": \"classifier\"}"},"feature_names":["survival","age","fractionalshortening","epss","lvdd","wallmotion-score","wallmotion-index","mult","pericardialeffusion"],"feature_types":["float","float","float","float","float","float","float","float","i"],"gradient_booster":{"model":{"gbtree_model_param":{"num_parallel_tree":"1","num_trees":"100"},"iteration_indptr":[0,1,2,3,4,5,6,7,8,9,10,11,12,13,14,15,16,17,18,19,20,21,22,23,24,25,26,27,28,29,30,31,32,33,34,35,36,37,38,39,40,41,42,43,44,45,46,47,48,49,50,51,52,53,54,55,56,57,58,59,60,61,62,63,64,65,66,67,68,69,70,71,72,73,74,75,76,77,78,79,80,81,82,83,84,85,86,87,88,89,90,91,92,93,94,95,96,97,98,99,100],"tree_info":[0,0,0,0,0,0,0,0,0,0,0,0,0,0,0,0,0,0,0,0,0,0,0,0,0,0,0,0,0,0,0,0,0,0,0,0,0,0,0,0,0,0,0,0,0,0,0,0,0,0,0,0,0,0,0,0,0,0,0,0,0,0,0,0,0,0,0,0,0,0,0,0,0,0,0,0,0,0,0,0,0,0,0,0,0,0,0,0,0,0,0,0,0,0,0,0,0,0,0,0],"trees":[{"base_weights":[-3.0838087E-2,1.3226342E-1,-9.751476E-1,-2.8355247E-1,-6.3253745E-2,2.3767352E-2,-4.714888E-2],"categories":[],"categories_nodes":[],"categories_segments":[],"categories_sizes":[],"default_left":[0,0,0,0,0,0,0],"id":0,"left_children":[1,-1,3,5,-1,-1,-1],"loss_changes":[7.605455E1,0E0,4.0970993E0,4.378171E0,0E0,0E0,0E0],"parents":[2147483647,0,0,2,2,3,3],"right_children":[2,-1,4,6,-1,-1,-1],"split_conditions":[-8.5703105E-1,1.3226342E-1,3.2409593E-2,-2.8668436E-1,-6.3253745E-2,2.3767352E-2,-4.714888E-2],"split_indices":[0,0,0,2,0,0,0],"split_type":[0,0,0,0,0,0,0],"sum_hessian":[2.8075151E1,6.8529897E0,2.122216E1,6.8529897E0,1.4369172E1,3.3159628E0,3.537027E0],"tree_param":{"num_deleted":"0","num_feature":"9","num_nodes":"7","size_leaf_vector":"1"}},{"base_weights":[-2.8859356E-2,1.21907726E-1,-9.4569653E-1,-2.7366236E-1,-6.1604973E-2,2.2711203E-2,-4.591277E-2],"categories":[],"categories_nodes":[],"categories_segments":[],"categories_sizes":[],"default_left":[0,0,0,0,0,0,0],"id":1,"left_children":[1,-1,3,5,-1,-1,-1],"loss_changes":[6.7928246E1,0E0,3.8726597E0,4.08687E0,0E0,0E0,0E0],"parents":[2147483647,0,0,2,2,3,3],"right_children":[2,-1,4,6,-1,-1,-1],"split_conditions":[-8.5703105E-1,1.21907726E-1,3.2409593E-2,-2.8668436E-1,-6.1604973E-2,2.2711203E-2,-4.591277E-2],"split_indices":[0,0,0,2,0,0,0],"split_type":[0,0,0,0,0,0,0],"sum_hessian":[2.801275E1,7.1403303E0,2.087242E1,6.821508E0,1.4050912E1,3.3424654E0,3.4790425E0],"tree_param":{"num_deleted":"0","num_feature":"9","num_nodes":"7","size_leaf_vector":"1"}},{"base_weights":[-2.714885E-2,1.1337143E-1,-9.179283E-1,-1.1280173E0,-3.4707484E-3,-7.220216E-1,-6.5202236E-2,-1.7479893E-2,-4.4844948E-2],"categories":[],"categories_nodes":[],"categories_segments":[],"categories_sizes":[],"default_left":[0,0,0,0,0,0,0,0,0],"id":2,"left_children":[1,-1,3,5,-1,7,-1,-1,-1],"loss_changes":[6.110191E1,0E0,3.756569E0,2.8606415E-1,0E0,1.7072225E-1,0E0,0E0,0E0],"parents":[2147483647,0,0,2,2,3,3,5,5],"right_children":[2,-1,4,6,-1,8,-1,-1,-1],"split_conditions":[-8.5703105E-1,1.1337143E-1,6.270162E-1,-6.415592E-2,-3.4707484E-3,-3.134799E-1,-6.5202236E-2,-1.7479893E-2,-4.4844948E-2],"split_indices":[0,0,3,2,0,3,0,0,0],"split_type":[0,0,0,0,0,0,0,0,0],"sum_hessian":[2.7875565E1,7.3631725E0,2.0512392E1,1.6177496E1,4.3348975E0,6.435708E0,9.741787E0,3.0146747E0,3.4210334E0],"tree_param":{"num_deleted":"0","num_feature":"9","num_nodes":"9","size_leaf_vector":"1"}},{"base_weights":[-2.7239557E-2,1.0621791E-1,-8.925874E-1,-2.3840025E-1,-5.8958437E-2,2.2390846E-2,-4.3467592E-2],"categories":[],"categories_nodes":[],"categories_segments":[],"categories_sizes":[],"default_left":[0,0,0,0,0,0,0],"id":3,"left_children":[1,-1,3,5,-1,-1,-1],"loss_changes":[5.533861E1,0E0,3.6886559E0,3.7247896E0,0E0,0E0,0E0],"parents":[2147483647,0,0,2,2,3,3],"right_children":[2,-1,4,6,-1,-1,-1],"split_conditions":[-8.5703105E-1,1.0621791E-1,3.2409593E-2,-2.8668436E-1,-5.8958437E-2,2.2390846E-2,-4.3467592E-2],"split_indices":[0,0,0,2,0,0,0],"split_type":[0,0,0,0,0,0,0],"sum_hessian":[2.770347E1,7.528849E0,2.0174622E1,6.7037215E0,1.34709E1,3.3502607E0,3.3534608E0],"tree_param":{"num_deleted":"0","num_feature":"9","num_nodes":"7","size_leaf_vector":"1"}},{"base_weights":[-2.5814168E-2,1.0013896E-1,-8.6738324E-1,-1.076953E0,-2.4062886E-3,-6.79363E-1,-6.265278E-2,-4.291512E-2,-1.651963E-2],"categories":[],"categories_nodes":[],"categories_segments":[],"categories_sizes":[],"default_left":[0,0,0,0,0,0,0,0,0],"id":4,"left_children":[1,-1,3,5,-1,7,-1,-1,-1],"loss_changes":[5.0306763E1,0E0,3.5203457E0,3.0545616E-1,0E0,1.6948962E-1,0E0,0E0,0E0],"parents":[2147483647,0,0,2,2,3,3,5,5],"right_children":[2,-1,4,6,-1,8,-1,-1,-1],"split_conditions":[-8.5703105E-1,1.0013896E-1,6.270162E-1,-6.415592E-2,-2.4062886E-3,-5.9628916E-1,-6.265278E-2,-4.291512E-2,-1.651963E-2],"split_indices":[0,0,3,2,0,2,0,0,0],"split_type":[0,0,0,0,0,0,0,0,0],"sum_hessian":[2.7449825E1,7.644067E0,1.980576E1,1.5520896E1,4.2848625E0,6.2555013E0,9.265394E0,3.1703389E0,3.0851626E0],"tree_param":{"num_deleted":"0","num_feature":"9","num_nodes":"9","size_leaf_vector":"1"}},{"base_weights":[-2.6091032E-2,9.491097E-2,-8.441664E-1,-2.0467718E-1,-5.6625176E-2,2.2262543E-2,-4.1266423E-2],"categories":[],"categories_nodes":[],"categories_segments":[],"categories_sizes":[],"default_left":[0,0,0,0,0,0,0],"id":5,"left_children":[1,-1,3,5,-1,-1,-1],"loss_changes":[4.5968365E1,0E0,3.5422106E0,3.4256E0,0E0,0E0,0E0],"parents":[2147483647,0,0,2,2,3,3],"right_children":[2,-1,4,6,-1,-1,-1],"split_conditions":[-8.5703105E-1,9.491097E-2,3.2409593E-2,-2.8668436E-1,-5.6625176E-2,2.2262543E-2,-4.1266423E-2],"split_indices":[0,0,0,2,0,0,0],"split_type":[0,0,0,0,0,0,0],"sum_hessian":[2.7182617E1,7.7149196E0,1.9467697E1,6.581268E0,1.288643E1,3.3528583E0,3.2284095E0],"tree_param":{"num_deleted":"0","num_feature":"9","num_nodes":"7","size_leaf_vector":"1"}},{"base_weights":[-2.4852054E-2,9.03678E-2,-8.210328E-1,-1.9805948E-1,-5.5367917E-2,2.1284873E-2,-4.0266868E-2],"categories":[],"categories_nodes":[],"categories_segments":[],"categories_sizes":[],"default_left":[0,0,0,0,0,0,0],"id":6,"left_children":[1,-1,3,5,-1,-1,-1],"loss_changes":[4.210264E1,0E0,3.3655548E0,3.2013118E0,0E0,0E0,0E0],"parents":[2147483647,0,0,2,2,3,3],"right_children":[2,-1,4,6,-1,-1,-1],"split_conditions":[-8.5703105E-1,9.03678E-2,3.2409593E-2,-2.8668436E-1,-5.5367917E-2,2.1284873E-2,-4.0266868E-2],"split_indices":[0,0,0,2,0,0,0],"split_type":[0,0,0,0,0,0,0],"sum_hessian":[2.6844538E1,7.7469244E0,1.9097614E1,6.5462747E0,1.2551339E1,3.3768241E0,3.1694508E0],"tree_param":{"num_deleted":"0","num_feature":"9","num_nodes":"7","size_leaf_vector":"1"}},{"base_weights":[-2.3738572E-2,8.638354E-2,-7.989182E-1,-9.773022E-1,5.349537E-3,-5.529785E-2,-1.6247941E-2],"categories":[],"categories_nodes":[],"categories_segments":[],"categories_sizes":[],"default_left":[0,0,0,0,0,0,0],"id":7,"left_children":[1,-1,3,5,-1,-1,-1],"loss_changes":[3.867871E1,0E0,3.2925377E0,1.0321836E0,0E0,0E0,0E0],"parents":[2147483647,0,0,2,2,3,3],"right_children":[2,-1,4,6,-1,-1,-1],"split_conditions":[-8.5703105E-1,8.638354E-2,7.8376555E-1,7.7737784E-1,5.349537E-3,-5.529785E-2,-1.6247941E-2],"split_indices":[0,0,3,1,0,0,0],"split_type":[0,0,0,0,0,0,0],"sum_hessian":[2.6472662E1,7.7450576E0,1.8727604E1,1.5580762E1,3.1468425E0,1.243331E1,3.1474514E0],"tree_param":{"num_deleted":"0","num_feature":"9","num_nodes":"7","size_leaf_vector":"1"}},{"base_weights":[-2.2424702E-2,8.2860954E-2,-7.764957E-1,-1.6780026E-1,-5.3283244E-2,2.1364314E-2,-3.8416386E-2],"categories":[],"categories_nodes":[],"categories_segments":[],"categories_sizes":[],"default_left":[0,0,0,0,0,0,0],"id":8,"left_children":[1,-1,3,5,-1,-1,-1],"loss_changes":[3.560263E1,0E0,3.232314E0,2.9829414E0,0E0,0E0,0E0],"parents":[2147483647,0,0,2,2,3,3],"right_children":[2,-1,4,6,-1,-1,-1],"split_conditions":[-8.5703105E-1,8.2860954E-2,3.2409593E-2,-2.8668436E-1,-5.3283244E-2,2.1364314E-2,-3.8416386E-2],"split_indices":[0,0,0,2,0,0,0],"split_type":[0,0,0,0,0,0,0],"sum_hessian":[2.6093485E1,7.7138014E0,1.8379683E1,6.428371E0,1.1951312E1,3.3737097E0,3.0546615E0],"tree_param":{"num_deleted":"0","num_feature":"9","num_nodes":"7","size_leaf_vector":"1"}},{"base_weights":[-2.1465337E-2,7.972387E-2,-7.559819E-1,-9.686804E-1,3.6981524E-4,-2.862133E-2,-5.778992E-2],"categories":[],"categories_nodes":[],"categories_segments":[],"categories_sizes":[],"default_left":[0,0,0,0,0,0,0],"id":9,"left_children":[1,-1,3,5,-1,-1,-1],"loss_changes":[3.286553E1,0E0,3.0948849E0,4.4170666E-1,0E0,0E0,0E0],"parents":[2147483647,0,0,2,2,3,3],"right_children":[2,-1,4,6,-1,-1,-1],"split_conditions":[-8.5703105E-1,7.972387E-2,6.270162E-1,-6.415592E-2,3.6981524E-4,-2.862133E-2,-5.778992E-2],"split_indices":[0,0,3,2,0,0,0],"split_type":[0,0,0,0,0,0,0],"sum_hessian":[2.5673817E1,7.657177E0,1.801664E1,1.388027E1,4.136369E0,5.754124E0,8.126146E0],"tree_param":{"num_deleted":"0","num_feature":"9","num_nodes":"7","size_leaf_vector":"1"}},{"base_weights":[-2.1160033E-2,7.69117E-2,-7.359854E-1,-1.4053613E-1,-5.1414233E-2,-2.7494008E-2,1.4485776E-2],"categories":[],"categories_nodes":[],"categories_segments":[],"categories_sizes":[],"default_left":[0,0,0,0,0,0,0],"id":10,"left_children":[1,-1,3,5,-1,-1,-1],"loss_changes":[3.0408276E1,0E0,3.1076107E0,1.4468461E0,0E0,0E0,0E0],"parents":[2147483647,0,0,2,2,3,3],"right_children":[2,-1,4,6,-1,-1,-1],"split_conditions":[-8.5703105E-1,7.69117E-2,3.2409593E-2,-3.4877926E-1,-5.1414233E-2,-2.7494008E-2,1.4485776E-2],"split_indices":[0,0,0,0,0,0,0],"split_type":[0,0,0,0,0,0,0],"sum_hessian":[2.5263842E1,7.578788E0,1.7685053E1,6.3105288E0,1.1374524E1,3.0913537E0,3.2191753E0],"tree_param":{"num_deleted":"0","num_feature":"9","num_nodes":"7","size_leaf_vector":"1"}},{"base_weights":[-2.0164723E-2,7.437571E-2,-7.162429E-1,-1.3580503E-1,-5.038617E-2,-2.6718793E-2,1.3877829E-2],"categories":[],"categories_nodes":[],"categories_segments":[],"categories_sizes":[],"default_left":[0,0,0,0,0,0,0],"id":11,"left_children":[1,-1,3,5,-1,-1,-1],"loss_changes":[2.8167027E1,0E0,2.9664326E0,1.3489774E0,0E0,0E0,0E0],"parents":[2147483647,0,0,2,2,3,3],"right_children":[2,-1,4,6,-1,-1,-1],"split_conditions":[-8.5703105E-1,7.437571E-2,3.2409593E-2,-3.4877926E-1,-5.038617E-2,-2.6718793E-2,1.3877829E-2],"split_indices":[0,0,0,0,0,0,0],"split_type":[0,0,0,0,0,0,0],"sum_hessian":[2.4824274E1,7.4818597E0,1.7342415E1,6.2875857E0,1.1054829E1,3.052018E0,3.2355678E0],"tree_param":{"num_deleted":"0","num_feature":"9","num_nodes":"7","size_leaf_vector":"1"}},{"base_weights":[-1.9232258E-2,7.207614E-2,-6.9715214E-1,-9.140865E-1,2.1117062E-3,-2.5690481E-2,-5.5566054E-2],"categories":[],"categories_nodes":[],"categories_segments":[],"categories_sizes":[],"default_left":[0,0,0,0,0,0,0],"id":12,"left_children":[1,-1,3,5,-1,-1,-1],"loss_changes":[2.6132856E1,0E0,2.9266415E0,5.315218E-1,0E0,0E0,0E0],"parents":[2147483647,0,0,2,2,3,3],"right_children":[2,-1,4,6,-1,-1,-1],"split_conditions":[-8.5703105E-1,7.207614E-2,6.270162E-1,-6.415592E-2,2.1117062E-3,-2.5690481E-2,-5.5566054E-2],"split_indices":[0,0,3,2,0,0,0],"split_type":[0,0,0,0,0,0,0],"sum_hessian":[2.4374664E1,7.369267E0,1.7005398E1,1.2965167E1,4.0402308E0,5.4697247E0,7.495443E0],"tree_param":{"num_deleted":"0","num_feature":"9","num_nodes":"7","size_leaf_vector":"1"}},{"base_weights":[-1.9005802E-2,6.9980435E-2,-6.788719E-1,-1.111975E-1,-4.871924E-2,1.4053056E-2,-2.441825E-2],"categories":[],"categories_nodes":[],"categories_segments":[],"categories_sizes":[],"default_left":[0,0,0,0,0,0,0],"id":13,"left_children":[1,-1,3,5,-1,-1,-1],"loss_changes":[2.4293795E1,0E0,2.8598537E0,1.2004479E0,0E0,0E0,0E0],"parents":[2147483647,0,0,2,2,3,3],"right_children":[2,-1,4,6,-1,-1,-1],"split_conditions":[-8.5703105E-1,6.9980435E-2,3.2409593E-2,-4.511619E-1,-4.871924E-2,1.4053056E-2,-2.441825E-2],"split_indices":[0,0,0,2,0,0,0],"split_type":[0,0,0,0,0,0,0],"sum_hessian":[2.3937239E1,7.2435746E0,1.6693665E1,6.1862626E0,1.0507401E1,3.1573708E0,3.0288918E0],"tree_param":{"num_deleted":"0","num_feature":"9","num_nodes":"7","size_leaf_vector":"1"}},{"base_weights":[-1.8085532E-2,6.806146E-2,-6.6096497E-1,-8.453103E-1,7.992712E-3,-4.4667888E-1,-5.4332085E-2,-1.9502512E-3,-3.7443798E-2],"categories":[],"categories_nodes":[],"categories_segments":[],"categories_sizes":[],"default_left":[0,0,0,0,0,0,0,0,0],"id":14,"left_children":[1,-1,3,5,-1,7,-1,-1,-1],"loss_changes":[2.2600597E1,0E0,2.762814E0,8.941574E-1,0E0,8.4618556E-1,0E0,0E0,0E0],"parents":[2147483647,0,0,2,2,3,3,5,5],"right_children":[2,-1,4,6,-1,8,-1,-1,-1],"split_conditions":[-8.5703105E-1,6.806146E-2,7.8376555E-1,-6.415592E-2,7.992712E-3,-2.295E-1,-5.4332085E-2,-1.9502512E-3,-3.7443798E-2],"split_indices":[0,0,3,2,0,4,0,0,0],"split_type":[0,0,0,0,0,0,0,0,0],"sum_hessian":[2.3472836E1,7.107059E0,1.6365778E1,1.3339959E1,3.0258183E0,6.1056075E0,7.234351E0,3.0798542E0,3.0257533E0],"tree_param":{"num_deleted":"0","num_feature":"9","num_nodes":"9","size_leaf_vector":"1"}},{"base_weights":[-1.8348351E-2,6.629658E-2,-6.441901E-1,-8.992573E-2,-4.7159094E-2,-1.5237506E-2,7.398147E-3],"categories":[],"categories_nodes":[],"categories_segments":[],"categories_sizes":[],"default_left":[0,0,0,0,0,0,0],"id":15,"left_children":[1,-1,3,5,-1,-1,-1],"loss_changes":[2.107402E1,0E0,2.744389E0,4.07303E-1,0E0,0E0,0E0],"parents":[2147483647,0,0,2,2,3,3],"right_children":[2,-1,4,6,-1,-1,-1],"split_conditions":[-8.5703105E-1,6.629658E-2,3.2409593E-2,-1.9054028E-1,-4.7159094E-2,-1.5237506E-2,7.398147E-3],"split_indices":[0,0,0,4,0,0,0],"split_type":[0,0,0,0,0,0,0],"sum_hessian":[2.3033892E1,6.961744E0,1.607215E1,6.0876884E0,9.98446E0,3.0512276E0,3.0364609E0],"tree_param":{"num_deleted":"0","num_feature":"9","num_nodes":"7","size_leaf_vector":"1"}},{"base_weights":[-1.7373657E-2,6.466667E-2,-6.266904E-1,-8.4748703E-1,3.5565984E-3,-2.2415716E-2,-5.2865237E-2],"categories":[],"categories_nodes":[],"categories_segments":[],"categories_sizes":[],"default_left":[0,0,0,0,0,0,0],"id":16,"left_children":[1,-1,3,5,-1,-1,-1],"loss_changes":[1.9642202E1,0E0,2.6442146E0,5.994606E-1,0E0,0E0,0E0],"parents":[2147483647,0,0,2,2,3,3],"right_children":[2,-1,4,6,-1,-1,-1],"split_conditions":[-8.5703105E-1,6.466667E-2,6.270162E-1,-6.415592E-2,3.5565984E-3,-2.2415716E-2,-5.2865237E-2],"split_indices":[0,0,3,2,0,0,0],"split_type":[0,0,0,0,0,0,0],"sum_hessian":[2.2579819E1,6.8094177E0,1.5770401E1,1.1816948E1,3.953453E0,5.152029E0,6.6649184E0],"tree_param":{"num_deleted":"0","num_feature":"9","num_nodes":"7","size_leaf_vector":"1"}},{"base_weights":[-1.7194387E-2,6.315552E-2,-6.1029536E-1,-3.4485706E-3,-4.5682095E-2],"categories":[],"categories_nodes":[],"categories_segments":[],"categories_sizes":[],"default_left":[0,0,0,0,0],"id":17,"left_children":[1,-1,3,-1,-1],"loss_changes":[1.8342245E1,0E0,2.6445184E0,0E0,0E0],"parents":[2147483647,0,0,2,2],"right_children":[2,-1,4,-1,-1],"split_conditions":[-8.5703105E-1,6.315552E-2,3.2409593E-2,-3.4485706E-3,-4.5682095E-2],"split_indices":[0,0,0,0,0],"split_type":[0,0,0,0,0],"sum_hessian":[2.2140026E1,6.6516623E0,1.5488363E1,6.003121E0,9.485242E0],"tree_param":{"num_deleted":"0","num_feature":"9","num_nodes":"5","size_leaf_vector":"1"}},{"base_weights":[-1.6093353E-2,6.174925E-2,-5.933931E-1,-3.3050713E-3,-4.4825386E-2],"categories":[],"categories_nodes":[],"categories_segments":[],"categories_sizes":[],"default_left":[0,0,0,0,0],"id":18,"left_children":[1,-1,3,-1,-1],"loss_changes":[1.7123108E1,0E0,2.5305543E0,0E0,0E0],"parents":[2147483647,0,0,2,2],"right_children":[2,-1,4,-1,-1],"split_conditions":[-8.5703105E-1,6.174925E-2,3.2409593E-2,-3.3050713E-3,-4.4825386E-2],"split_indices":[0,0,0,0,0],"split_type":[0,0,0,0,0],"sum_hessian":[2.1693445E1,6.4898696E0,1.5203577E1,5.994226E0,9.209351E0],"tree_param":{"num_deleted":"0","num_feature":"9","num_nodes":"5","size_leaf_vector":"1"}},{"base_weights":[-1.502385E-2,6.043595E-2,-5.769145E-1,-8.037888E-1,5.1831123E-3,-1.9958116E-2,-5.1307183E-2],"categories":[],"categories_nodes":[],"categories_segments":[],"categories_sizes":[],"default_left":[0,0,0,0,0,0,0],"id":19,"left_children":[1,-1,3,5,-1,-1,-1],"loss_changes":[1.5998176E1,0E0,2.542532E0,6.7538166E-1,0E0,0E0,0E0],"parents":[2147483647,0,0,2,2,3,3],"right_children":[2,-1,4,6,-1,-1,-1],"split_conditions":[-8.5703105E-1,6.043595E-2,6.270162E-1,-6.415592E-2,5.1831123E-3,-1.9958116E-2,-5.1307183E-2],"split_indices":[0,0,3,2,0,0,0],"split_type":[0,0,0,0,0,0,0],"sum_hessian":[2.125223E1,6.3252625E0,1.4926969E1,1.10592575E1,3.8677106E0,4.913379E0,6.1458783E0],"tree_param":{"num_deleted":"0","num_feature":"9","num_nodes":"7","size_leaf_vector":"1"}},{"base_weights":[-1.48552535E-2,5.9205323E-2,-5.6169313E-1,-2.3636953E-3,-4.34539E-2],"categories":[],"categories_nodes":[],"categories_segments":[],"categories_sizes":[],"default_left":[0,0,0,0,0],"id":20,"left_children":[1,-1,3,-1,-1],"loss_changes":[1.497631E1,0E0,2.4365711E0,0E0,0E0],"parents":[2147483647,0,0,2,2],"right_children":[2,-1,4,-1,-1],"split_conditions":[-8.5703105E-1,5.9205323E-2,3.2409593E-2,-2.3636953E-3,-4.34539E-2],"split_indices":[0,0,0,0,0],"split_type":[0,0,0,0,0],"sum_hessian":[2.0827917E1,6.158911E0,1.4669006E1,5.918307E0,8.7507E0],"tree_param":{"num_deleted":"0","num_feature":"9","num_nodes":"5","size_leaf_vector":"1"}},{"base_weights":[-1.37973055E-2,5.8048416E-2,-5.459532E-1,-7.7508616E-1,5.791877E-3,-1.8490057E-2,-5.0268468E-2],"categories":[],"categories_nodes":[],"categories_segments":[],"categories_sizes":[],"default_left":[0,0,0,0,0,0,0],"id":21,"left_children":[1,-1,3,5,-1,-1,-1],"loss_changes":[1.4012556E1,0E0,2.4263415E0,7.0859337E-1,0E0,0E0,0E0],"parents":[2147483647,0,0,2,2,3,3],"right_children":[2,-1,4,6,-1,-1,-1],"split_conditions":[-8.5703105E-1,5.8048416E-2,6.270162E-1,-6.415592E-2,5.791877E-3,-1.8490057E-2,-5.0268468E-2],"split_indices":[0,0,3,2,0,0,0],"split_type":[0,0,0,0,0,0,0],"sum_hessian":[2.040053E1,5.9917517E0,1.4408778E1,1.0575878E1,3.8328998E0,4.7760897E0,5.7997885E0],"tree_param":{"num_deleted":"0","num_feature":"9","num_nodes":"7","size_leaf_vector":"1"}},{"base_weights":[-1.3632709E-2,5.695743E-2,-5.314643E-1,-1.5101935E-3,-4.213922E-2],"categories":[],"categories_nodes":[],"categories_segments":[],"categories_sizes":[],"default_left":[0,0,0,0,0],"id":22,"left_children":[1,-1,3,-1,-1],"loss_changes":[1.3135909E1,0E0,2.3412962E0,0E0,0E0],"parents":[2147483647,0,0,2,2],"right_children":[2,-1,4,-1,-1],"split_conditions":[-8.5703105E-1,5.695743E-2,3.2409593E-2,-1.5101935E-3,-4.213922E-2],"split_indices":[0,0,0,0,0],"split_type":[0,0,0,0,0],"sum_hessian":[1.9990978E1,5.824595E0,1.4166384E1,5.847795E0,8.318589E0],"tree_param":{"num_deleted":"0","num_feature":"9","num_nodes":"5","size_leaf_vector":"1"}},{"base_weights":[-1.2579573E-2,5.592553E-2,-5.164175E-1,-7.4753374E-1,6.325563E-3,-1.7100196E-2,-4.929198E-2],"categories":[],"categories_nodes":[],"categories_segments":[],"categories_sizes":[],"default_left":[0,0,0,0,0,0,0],"id":23,"left_children":[1,-1,3,5,-1,-1,-1],"loss_changes":[1.23060875E1,0E0,2.3118846E0,7.375946E-1,0E0,0E0,0E0],"parents":[2147483647,0,0,2,2,3,3],"right_children":[2,-1,4,6,-1,-1,-1],"split_conditions":[-8.5703105E-1,5.592553E-2,6.270162E-1,-6.415592E-2,6.325563E-3,-1.7100196E-2,-4.929198E-2],"split_indices":[0,0,3,2,0,0,0],"split_type":[0,0,0,0,0,0,0],"sum_hessian":[1.958037E1,5.6581454E0,1.3922225E1,1.0121211E1,3.801014E0,4.6475425E0,5.473669E0],"tree_param":{"num_deleted":"0","num_feature":"9","num_nodes":"7","size_leaf_vector":"1"}},{"base_weights":[-1.2415301E-2,5.494668E-2,-5.026201E-1,-7.390929E-4,-4.087326E-2],"categories":[],"categories_nodes":[],"categories_segments":[],"categories_sizes":[],"default_left":[0,0,0,0,0],"id":24,"left_children":[1,-1,3,-1,-1],"loss_changes":[1.1550562E1,0E0,2.2449787E0,0E0,0E0],"parents":[2147483647,0,0,2,2],"right_children":[2,-1,4,-1,-1],"split_conditions":[-8.5703105E-1,5.494668E-2,3.2409593E-2,-7.390929E-4,-4.087326E-2],"split_indices":[0,0,0,0,0],"split_type":[0,0,0,0,0],"sum_hessian":[1.9188044E1,5.493005E0,1.3695039E1,5.7824087E0,7.9126306E0],"tree_param":{"num_deleted":"0","num_feature":"9","num_nodes":"5","size_leaf_vector":"1"}},{"base_weights":[-1.1362579E-2,5.4015588E-2,-4.8823124E-1,-7.210132E-1,6.7896964E-3,-1.5785156E-2,-4.8368406E-2],"categories":[],"categories_nodes":[],"categories_segments":[],"categories_sizes":[],"default_left":[0,0,0,0,0,0,0],"id":25,"left_children":[1,-1,3,5,-1,-1,-1],"loss_changes":[1.0833029E1,0E0,2.1993334E0,7.624583E-1,0E0,0E0,0E0],"parents":[2147483647,0,0,2,2,3,3],"right_children":[2,-1,4,6,-1,-1,-1],"split_conditions":[-8.5703105E-1,5.4015588E-2,6.270162E-1,-6.415592E-2,6.7896964E-3,-1.5785156E-2,-4.8368406E-2],"split_indices":[0,0,3,2,0,0,0],"split_type":[0,0,0,0,0,0,0],"sum_hessian":[1.8796154E1,5.3296933E0,1.346646E1,9.694622E0,3.7718375E0,4.527442E0,5.1671805E0],"tree_param":{"num_deleted":"0","num_feature":"9","num_nodes":"7","size_leaf_vector":"1"}},{"base_weights":[-1.1196224E-2,5.3127564E-2,-4.7509333E-1,-4.5167784E-5,-3.9649557E-2],"categories":[],"categories_nodes":[],"categories_segments":[],"categories_sizes":[],"default_left":[0,0,0,0,0],"id":26,"left_children":[1,-1,3,-1,-1],"loss_changes":[1.0179379E1,0E0,2.1479833E0,0E0,0E0],"parents":[2147483647,0,0,2,2],"right_children":[2,-1,4,-1,-1],"split_conditions":[-8.5703105E-1,5.3127564E-2,3.2409593E-2,-4.5167784E-5,-3.9649557E-2],"split_indices":[0,0,0,0,0],"split_type":[0,0,0,0,0],"sum_hessian":[1.8422619E1,5.1686497E0,1.325397E1,5.7218523E0,7.532118E0],"tree_param":{"num_deleted":"0","num_feature":"9","num_nodes":"5","size_leaf_vector":"1"}},{"base_weights":[-1.0140948E-2,5.2278396E-2,-4.6133488E-1,-6.954327E-1,7.1895304E-3,-1.4541986E-2,-4.7489997E-2],"categories":[],"categories_nodes":[],"categories_segments":[],"categories_sizes":[],"default_left":[0,0,0,0,0,0,0],"id":27,"left_children":[1,-1,3,5,-1,-1,-1],"loss_changes":[9.556716E0,0E0,2.0889335E0,7.832923E-1,0E0,0E0,0E0],"parents":[2147483647,0,0,2,2,3,3],"right_children":[2,-1,4,6,-1,-1,-1],"split_conditions":[-8.5703105E-1,5.2278396E-2,6.270162E-1,-6.415592E-2,7.1895304E-3,-1.4541986E-2,-4.7489997E-2],"split_indices":[0,0,3,2,0,0,0],"split_type":[0,0,0,0,0,0,0],"sum_hessian":[1.8050596E1,5.0102406E0,1.3040356E1,9.295195E0,3.745161E0,4.41544E0,4.879754E0],"tree_param":{"num_deleted":"0","num_feature":"9","num_nodes":"7","size_leaf_vector":"1"}},{"base_weights":[-9.971884E-3,5.146441E-2,-4.4883114E-1,5.7659874E-4,-3.846301E-2],"categories":[],"categories_nodes":[],"categories_segments":[],"categories_sizes":[],"default_left":[0,0,0,0,0],"id":28,"left_children":[1,-1,3,-1,-1],"loss_changes":[8.989345E0,0E0,2.050748E0,0E0,0E0],"parents":[2147483647,0,0,2,2],"right_children":[2,-1,4,-1,-1],"split_conditions":[-8.5703105E-1,5.146441E-2,3.2409593E-2,5.7659874E-4,-3.846301E-2],"split_indices":[0,0,0,0,0],"split_type":[0,0,0,0,0],"sum_hessian":[1.7696724E1,4.854779E0,1.2841945E1,5.6658225E0,7.1761227E0],"tree_param":{"num_deleted":"0","num_feature":"9","num_nodes":"5","size_leaf_vector":"1"}},{"base_weights":[-8.912093E-3,5.0682265E-2,-4.3568102E-1,-6.7072165E-1,7.530052E-3,-1.3368018E-2,-4.6650335E-2],"categories":[],"categories_nodes":[],"categories_segments":[],"categories_sizes":[],"default_left":[0,0,0,0,0,0,0],"id":29,"left_children":[1,-1,3,5,-1,-1,-1],"loss_changes":[8.447353E0,0E0,1.9809625E0,8.0023575E-1,0E0,0E0,0E0],"parents":[2147483647,0,0,2,2,3,3],"right_children":[2,-1,4,6,-1,-1,-1],"split_conditions":[-8.5703105E-1,5.0682265E-2,6.270162E-1,-6.415592E-2,7.530052E-3,-1.3368018E-2,-4.6650335E-2],"split_indices":[0,0,3,2,0,0,0],"split_type":[0,0,0,0,0,0,0],"sum_hessian":[1.7345112E1,4.702515E0,1.2642596E1,8.921813E0,3.720783E0,4.311154E0,4.6106596E0],"tree_param":{"num_deleted":"0","num_feature":"9","num_nodes":"7","size_leaf_vector":"1"}},{"base_weights":[-8.74035E-3,4.9929015E-2,-4.2379048E-1,1.1310296E-3,-3.730962E-2],"categories":[],"categories_nodes":[],"categories_segments":[],"categories_sizes":[],"default_left":[0,0,0,0,0],"id":30,"left_children":[1,-1,3,-1,-1],"loss_changes":[7.9534807E0,0E0,1.9537451E0,0E0,0E0],"parents":[2147483647,0,0,2,2],"right_children":[2,-1,4,-1,-1],"split_conditions":[-8.5703105E-1,4.9929015E-2,3.2409593E-2,1.1310296E-3,-3.730962E-2],"split_indices":[0,0,0,0,0],"split_type":[0,0,0,0,0],"sum_hessian":[1.7011238E1,4.5536556E0,1.24575815E1,5.6140175E0,6.8435645E0],"tree_param":{"num_deleted":"0","num_feature":"9","num_nodes":"5","size_leaf_vector":"1"}},{"base_weights":[-7.6753814E-3,4.9201995E-2,-4.1123036E-1,-6.46826E-1,7.81601E-3,-1.2260759E-2,-4.5844093E-2],"categories":[],"categories_nodes":[],"categories_segments":[],"categories_sizes":[],"default_left":[0,0,0,0,0,0,0],"id":31,"left_children":[1,-1,3,5,-1,-1,-1],"loss_changes":[7.480453E0,0E0,1.87571E0,8.1345415E-1,0E0,0E0,0E0],"parents":[2147483647,0,0,2,2,3,3],"right_children":[2,-1,4,6,-1,-1,-1],"split_conditions":[-8.5703105E-1,4.9201995E-2,6.270162E-1,-6.415592E-2,7.81601E-3,-1.2260759E-2,-4.5844093E-2],"split_indices":[0,0,3,2,0,0,0],"split_type":[0,0,0,0,0,0,0],"sum_hessian":[1.668011E1,4.408362E0,1.2271749E1,8.5732355E0,3.6985123E0,4.2141786E0,4.3590574E0],"tree_param":{"num_deleted":"0","num_feature":"9","num_nodes":"7","size_leaf_vector":"1"}},{"base_weights":[-7.5018522E-3,4.8498854E-2,-3.9993533E-1,1.6227603E-3,-7.237259E-1,-4.407218E-2,-2.0022875E-2],"categories":[],"categories_nodes":[],"categories_segments":[],"categories_sizes":[],"default_left":[0,0,0,0,0,0,0],"id":32,"left_children":[1,-1,3,-1,5,-1,-1],"loss_changes":[7.049511E0,0E0,1.8574574E0,0E0,3.1104326E-2,0E0,0E0],"parents":[2147483647,0,0,2,2,4,4],"right_children":[2,-1,4,-1,6,-1,-1],"split_conditions":[-8.5703105E-1,4.8498854E-2,3.2409593E-2,1.6227603E-3,6.768143E-2,-4.407218E-2,-2.0022875E-2],"split_indices":[0,0,0,0,7,0,0],"split_type":[0,0,0,0,0,0,0],"sum_hessian":[1.6366167E1,4.2667603E0,1.2099406E1,5.566139E0,6.5332675E0,3.2304962E0,3.3027713E0],"tree_param":{"num_deleted":"0","num_feature":"9","num_nodes":"7","size_leaf_vector":"1"}},{"base_weights":[-8.033741E-3,4.7817428E-2,-3.8940126E-1,-6.2524116E-1,8.065295E-3,-1.12718E-2,-4.5121495E-2],"categories":[],"categories_nodes":[],"categories_segments":[],"categories_sizes":[],"default_left":[0,0,0,0,0,0,0],"id":33,"left_children":[1,-1,3,5,-1,-1,-1],"loss_changes":[6.653296E0,0E0,1.7826191E0,8.240118E-1,0E0,0E0,0E0],"parents":[2147483647,0,0,2,2,3,3],"right_children":[2,-1,4,6,-1,-1,-1],"split_conditions":[-8.5703105E-1,4.7817428E-2,6.270162E-1,-6.415592E-2,8.065295E-3,-1.12718E-2,-4.5121495E-2],"split_indices":[0,0,3,2,0,0,0],"split_type":[0,0,0,0,0,0,0],"sum_hessian":[1.6077665E1,4.128938E0,1.1948727E1,8.2712345E0,3.677492E0,4.1290145E0,4.1422195E0],"tree_param":{"num_deleted":"0","num_feature":"9","num_nodes":"7","size_leaf_vector":"1"}},{"base_weights":[-7.8142835E-3,4.715581E-2,-3.7864903E-1,2.0573954E-3,-7.0335174E-1,-4.3327387E-2,-1.8768579E-2],"categories":[],"categories_nodes":[],"categories_segments":[],"categories_sizes":[],"default_left":[0,0,0,0,0,0,0],"id":34,"left_children":[1,-1,3,-1,5,-1,-1],"loss_changes":[6.2752395E0,0E0,1.7719935E0,0E0,6.361866E-2,0E0,0E0],"parents":[2147483647,0,0,2,2,4,4],"right_children":[2,-1,4,-1,6,-1,-1],"split_conditions":[-8.5703105E-1,4.715581E-2,3.2409593E-2,2.0573954E-3,6.768143E-2,-4.3327387E-2,-1.8768579E-2],"split_indices":[0,0,0,0,7,0,0],"split_type":[0,0,0,0,0,0,0],"sum_hessian":[1.5782447E1,3.9949596E0,1.1787487E1,5.5218077E0,6.26568E0,3.0873873E0,3.1782925E0],"tree_param":{"num_deleted":"0","num_feature":"9","num_nodes":"7","size_leaf_vector":"1"}},{"base_weights":[-8.29593E-3,4.6512287E-2,-3.686559E-1,-5.8413154E-1,1.0788049E-2,-4.8138995E-2,-7.948004E-3],"categories":[],"categories_nodes":[],"categories_segments":[],"categories_sizes":[],"default_left":[0,0,0,0,0,0,0],"id":35,"left_children":[1,-1,3,5,-1,-1,-1],"loss_changes":[5.927564E0,0E0,1.7186768E0,1.377991E0,0E0,0E0,0E0],"parents":[2147483647,0,0,2,2,3,3],"right_children":[2,-1,4,6,-1,-1,-1],"split_conditions":[-8.5703105E-1,4.6512287E-2,3.1924924E-1,-2.4248657E-1,1.0788049E-2,-4.8138995E-2,-7.948004E-3],"split_indices":[0,0,5,4,0,0,0],"split_type":[0,0,0,0,0,0,0],"sum_hessian":[1.5512159E1,3.864862E0,1.1647297E1,8.510096E0,3.1372013E0,3.8325028E0,4.6775928E0],"tree_param":{"num_deleted":"0","num_feature":"9","num_nodes":"7","size_leaf_vector":"1"}},{"base_weights":[-7.943656E-3,4.5885317E-2,-3.576649E-1,-1.7678108E-2,-3.8225234E-2,2.5006164E-2,-3.1191925E-2],"categories":[],"categories_nodes":[],"categories_segments":[],"categories_sizes":[],"default_left":[0,0,0,0,0,0,0],"id":36,"left_children":[1,-1,3,5,-1,-1,-1],"loss_changes":[5.5913715E0,0E0,1.7182086E0,2.7739556E0,0E0,0E0,0E0],"parents":[2147483647,0,0,2,2,3,3],"right_children":[2,-1,4,6,-1,-1,-1],"split_conditions":[-8.5703105E-1,4.5885317E-2,-6.415592E-2,3.2409593E-2,-3.8225234E-2,2.5006164E-2,-3.1191925E-2],"split_indices":[0,0,2,0,0,0,0],"split_type":[0,0,0,0,0,0,0],"sum_hessian":[1.5258339E1,3.7386608E0,1.1519678E1,6.843866E0,4.6758122E0,3.7852867E0,3.0585792E0],"tree_param":{"num_deleted":"0","num_feature":"9","num_nodes":"7","size_leaf_vector":"1"}},{"base_weights":[-7.6722368E-3,4.527349E-2,-3.4838817E-1,-5.8547133E-1,8.713291E-3,-9.637605E-3,-4.3703154E-2],"categories":[],"categories_nodes":[],"categories_segments":[],"categories_sizes":[],"default_left":[0,0,0,0,0,0,0],"id":37,"left_children":[1,-1,3,5,-1,-1,-1],"loss_changes":[5.2828155E0,0E0,1.632298E0,8.203945E-1,0E0,0E0,0E0],"parents":[2147483647,0,0,2,2,3,3],"right_children":[2,-1,4,6,-1,-1,-1],"split_conditions":[-8.5703105E-1,4.527349E-2,6.270162E-1,-6.415592E-2,8.713291E-3,-9.637605E-3,-4.3703154E-2],"split_indices":[0,0,3,2,0,0,0],"split_type":[0,0,0,0,0,0,0],"sum_hessian":[1.4965956E1,3.616347E0,1.1349608E1,7.725173E0,3.6244354E0,3.9787488E0,3.7464242E0],"tree_param":{"num_deleted":"0","num_feature":"9","num_nodes":"7","size_leaf_vector":"1"}},{"base_weights":[-7.3901163E-3,4.467557E-2,-3.3869284E-1,-5.548079E-1,1.1213593E-2,-4.7162928E-2,-6.7327665E-3],"categories":[],"categories_nodes":[],"categories_segments":[],"categories_sizes":[],"default_left":[0,0,0,0,0,0,0],"id":38,"left_children":[1,-1,3,5,-1,-1,-1],"loss_changes":[4.9905934E0,0E0,1.6098015E0,1.3597984E0,0E0,0E0,0E0],"parents":[2147483647,0,0,2,2,3,3],"right_children":[2,-1,4,6,-1,-1,-1],"split_conditions":[-8.5703105E-1,4.467557E-2,3.1924924E-1,-2.4248657E-1,1.1213593E-2,-4.7162928E-2,-6.7327665E-3],"split_indices":[0,0,5,4,0,0,0],"split_type":[0,0,0,0,0,0,0],"sum_hessian":[1.4706603E1,3.4979014E0,1.1208702E1,8.109901E0,3.0988E0,3.5670033E0,4.5428987E0],"tree_param":{"num_deleted":"0","num_feature":"9","num_nodes":"7","size_leaf_vector":"1"}},{"base_weights":[-7.0153316E-3,4.358549E-1,-3.2758016E-2,4.409045E-2,3.1519108E-3],"categories":[],"categories_nodes":[],"categories_segments":[],"categories_sizes":[],"default_left":[0,0,0,0,0],"id":39,"left_children":[1,3,-1,-1,-1],"loss_changes":[4.7284055E0,1.5730139E0,0E0,0E0,0E0],"parents":[2147483647,0,0,1,1],"right_children":[2,4,-1,-1,-1],"split_conditions":[3.2409593E-2,-8.5703105E-1,-3.2758016E-2,4.409045E-2,3.1519108E-3],"split_indices":[0,0,0,0,0],"split_type":[0,0,0,0,0],"sum_hessian":[1.4477936E1,8.795562E0,5.682374E0,3.383291E0,5.4122705E0],"tree_param":{"num_deleted":"0","num_feature":"9","num_nodes":"5","size_leaf_vector":"1"}},{"base_weights":[-5.818038E-3,4.3517105E-2,-3.1838515E-1,5.4001524E-3,-3.6450017E-2,1.676195E-2,-1.8662265E-2],"categories":[],"categories_nodes":[],"categories_segments":[],"categories_sizes":[],"default_left":[0,0,0,0,0,0,0],"id":40,"left_children":[1,-1,3,5,-1,-1,-1],"loss_changes":[4.4479847E0,0E0,1.5937101E0,1.0840869E0,0E0,0E0,0E0],"parents":[2147483647,0,0,2,2,3,3],"right_children":[2,-1,4,6,-1,-1,-1],"split_conditions":[-8.5703105E-1,4.3517105E-2,-6.415592E-2,-1.9500507E-2,-3.6450017E-2,1.676195E-2,-1.8662265E-2],"split_indices":[0,0,2,0,0,0,0],"split_type":[0,0,0,0,0,0,0],"sum_hessian":[1.4230039E1,3.272464E0,1.0957574E1,6.67832E0,4.2792544E0,3.6304574E0,3.0478623E0],"tree_param":{"num_deleted":"0","num_feature":"9","num_nodes":"7","size_leaf_vector":"1"}},{"base_weights":[-5.301191E-3,4.2954657E-2,-3.0954337E-1,-5.2676463E-1,1.1765274E-2,-4.6271022E-2,-5.485346E-3],"categories":[],"categories_nodes":[],"categories_segments":[],"categories_sizes":[],"default_left":[0,0,0,0,0,0,0],"id":41,"left_children":[1,-1,3,5,-1,-1,-1],"loss_changes":[4.206056E0,0E0,1.5225201E0,1.3545039E0,0E0,0E0,0E0],"parents":[2147483647,0,0,2,2,3,3],"right_children":[2,-1,4,6,-1,-1,-1],"split_conditions":[-8.5703105E-1,4.2954657E-2,3.1924924E-1,-2.4248657E-1,1.1765274E-2,-4.6271022E-2,-5.485346E-3],"split_indices":[0,0,5,4,0,0,0],"split_type":[0,0,0,0,0,0,0],"sum_hessian":[1.3982325E1,3.165366E0,1.0816958E1,7.7574124E0,3.0595465E0,3.342994E0,4.414418E0],"tree_param":{"num_deleted":"0","num_feature":"9","num_nodes":"7","size_leaf_vector":"1"}},{"base_weights":[-4.932409E-3,4.116556E-1,-3.1188656E-2,4.2402282E-2,3.4444078E-3],"categories":[],"categories_nodes":[],"categories_segments":[],"categories_sizes":[],"default_left":[0,0,0,0,0],"id":42,"left_children":[1,3,-1,-1,-1],"loss_changes":[4.0663795E0,1.3527642E0,0E0,0E0,0E0],"parents":[2147483647,0,0,1,1],"right_children":[2,4,-1,-1,-1],"split_conditions":[3.2409593E-2,-8.5703105E-1,-3.1188656E-2,4.2402282E-2,3.4444078E-3],"split_indices":[0,0,0,0,0],"split_type":[0,0,0,0,0],"sum_hessian":[1.3777253E1,8.434294E0,5.342959E0,3.0619266E0,5.3723674E0],"tree_param":{"num_deleted":"0","num_feature":"9","num_nodes":"5","size_leaf_vector":"1"}},{"base_weights":[-3.7469333E-3,4.0003884E-1,-3.0524462E-2,-9.5634424E-4,3.2913018E-2],"categories":[],"categories_nodes":[],"categories_segments":[],"categories_sizes":[],"default_left":[0,0,0,0,0],"id":43,"left_children":[1,3,-1,-1,-1],"loss_changes":[3.8098881E0,1.0238246E0,0E0,0E0,0E0],"parents":[2147483647,0,0,1,1],"right_children":[2,4,-1,-1,-1],"split_conditions":[3.2409593E-2,-7.3661156E-2,-3.0524462E-2,-9.5634424E-4,3.2913018E-2],"split_indices":[0,4,0,0,0],"split_type":[0,0,0,0,0],"sum_hessian":[1.35541115E1,8.342723E0,5.211388E0,3.5332308E0,4.8094926E0],"tree_param":{"num_deleted":"0","num_feature":"9","num_nodes":"5","size_leaf_vector":"1"}},{"base_weights":[-3.600258E-3,3.8472286E-1,-2.9867584E-2,3.6166918E-2,2.3909297E-3],"categories":[],"categories_nodes":[],"categories_segments":[],"categories_sizes":[],"default_left":[0,0,0,0,0],"id":44,"left_children":[1,3,-1,-1,-1],"loss_changes":[3.54956E0,1.0278726E0,0E0,0E0,0E0],"parents":[2147483647,0,0,1,1],"right_children":[2,4,-1,-1,-1],"split_conditions":[3.2409593E-2,-7.299681E-1,-2.9867584E-2,3.6166918E-2,2.3909297E-3],"split_indices":[0,0,0,0,0],"split_type":[0,0,0,0,0],"sum_hessian":[1.3398157E1,8.313222E0,5.0849357E0,3.5740268E0,4.739195E0],"tree_param":{"num_deleted":"0","num_feature":"9","num_nodes":"5","size_leaf_vector":"1"}},{"base_weights":[-2.8916127E-3,3.7240785E-1,-2.9218037E-2,3.5316657E-2,2.2901823E-3],"categories":[],"categories_nodes":[],"categories_segments":[],"categories_sizes":[],"default_left":[0,0,0,0,0],"id":45,"left_children":[1,3,-1,-1,-1],"loss_changes":[3.3187175E0,9.761512E-1,0E0,0E0,0E0],"parents":[2147483647,0,0,1,1],"right_children":[2,4,-1,-1,-1],"split_conditions":[3.2409593E-2,-7.299681E-1,-2.9218037E-2,3.5316657E-2,2.2901823E-3],"split_indices":[0,0,0,0,0],"split_type":[0,0,0,0,0],"sum_hessian":[1.3210545E1,8.24712E0,4.9634247E0,3.5029705E0,4.744149E0],"tree_param":{"num_deleted":"0","num_feature":"9","num_nodes":"5","size_leaf_vector":"1"}},{"base_weights":[-2.2209461E-3,3.6044493E-1,-2.8575873E-2,-1.7651009E-3,3.0551387E-2],"categories":[],"categories_nodes":[],"categories_segments":[],"categories_sizes":[],"default_left":[0,0,0,0,0],"id":46,"left_children":[1,3,-1,-1,-1],"loss_changes":[3.1028333E0,9.3232167E-1,0E0,0E0,0E0],"parents":[2147483647,0,0,1,1],"right_children":[2,4,-1,-1,-1],"split_conditions":[3.2409593E-2,-7.3661156E-2,-2.8575873E-2,-1.7651009E-3,3.0551387E-2],"split_indices":[0,4,0,0,0],"split_type":[0,0,0,0,0],"sum_hessian":[1.3030663E1,8.183981E0,4.8466816E0,3.506021E0,4.67796E0],"tree_param":{"num_deleted":"0","num_feature":"9","num_nodes":"5","size_leaf_vector":"1"}},{"base_weights":[-2.2050096E-3,3.4657124E-1,-2.7941152E-2,3.3946406E-2,1.664953E-3],"categories":[],"categories_nodes":[],"categories_segments":[],"categories_sizes":[],"default_left":[0,0,0,0,0],"id":47,"left_children":[1,3,-1,-1,-1],"loss_changes":[2.890733E0,9.3092334E-1,0E0,0E0,0E0],"parents":[2147483647,0,0,1,1],"right_children":[2,4,-1,-1,-1],"split_conditions":[3.2409593E-2,-7.299681E-1,-2.7941152E-2,3.3946406E-2,1.664953E-3],"split_indices":[0,0,0,0,0],"split_type":[0,0,0,0,0],"sum_hessian":[1.2892697E1,8.158163E0,4.734534E0,3.392149E0,4.7660146E0],"tree_param":{"num_deleted":"0","num_feature":"9","num_nodes":"5","size_leaf_vector":"1"}},{"base_weights":[-1.5937062E-3,3.312149E-2,-2.779607E-1,-3.7920304E-2,7.1718507E-3],"categories":[],"categories_nodes":[],"categories_segments":[],"categories_sizes":[],"default_left":[0,0,0,0,0],"id":48,"left_children":[1,-1,3,-1,-1],"loss_changes":[2.7029638E0,0E0,2.2135913E0,0E0,0E0],"parents":[2147483647,0,0,2,2],"right_children":[2,-1,4,-1,-1],"split_conditions":[-7.299681E-1,3.312149E-2,-2.4248657E-1,-3.7920304E-2,7.1718507E-3],"split_indices":[0,0,4,0,0],"split_type":[0,0,0,0,0],"sum_hessian":[1.272556E1,3.3293214E0,9.396238E0,4.0168242E0,5.3794146E0],"tree_param":{"num_deleted":"0","num_feature":"9","num_nodes":"5","size_leaf_vector":"1"}},{"base_weights":[-1.4357382E-3,3.3269066E-1,-2.7040629E-2,2.815993E-2,-2.2837385E-3],"categories":[],"categories_nodes":[],"categories_segments":[],"categories_sizes":[],"default_left":[0,0,0,0,0],"id":49,"left_children":[1,3,-1,-1,-1],"loss_changes":[2.6276145E0,8.111619E-1,0E0,0E0,0E0],"parents":[2147483647,0,0,1,1],"right_children":[2,4,-1,-1,-1],"split_conditions":[3.2409593E-2,-2.8668436E-1,-2.7040629E-2,2.815993E-2,-2.2837385E-3],"split_indices":[0,2,0,0,0],"split_type":[0,0,0,0,0],"sum_hessian":[1.258168E1,8.005641E0,4.57604E0,4.6712914E0,3.3343496E0],"tree_param":{"num_deleted":"0","num_feature":"9","num_nodes":"5","size_leaf_vector":"1"}},{"base_weights":[-1.5599844E-3,3.1951517E-2,-2.6713783E-1,-3.7174635E-2,6.992557E-3],"categories":[],"categories_nodes":[],"categories_segments":[],"categories_sizes":[],"default_left":[0,0,0,0,0],"id":50,"left_children":[1,-1,3,-1,-1],"loss_changes":[2.4634042E0,0E0,2.0876622E0,0E0,0E0],"parents":[2147483647,0,0,2,2],"right_children":[2,-1,4,-1,-1],"split_conditions":[-7.299681E-1,3.1951517E-2,-2.4248657E-1,-3.7174635E-2,6.992557E-3],"split_indices":[0,0,4,0,0],"split_type":[0,0,0,0,0],"sum_hessian":[1.2476405E1,3.2444355E0,9.23197E0,3.8725648E0,5.359405E0],"tree_param":{"num_deleted":"0","num_feature":"9","num_nodes":"5","size_leaf_vector":"1"}},{"base_weights":[-1.4427644E-3,3.1645396E-1,-2.6161596E-2,2.6857397E-2,-2.3761492E-3],"categories":[],"categories_nodes":[],"categories_segments":[],"categories_sizes":[],"default_left":[0,0,0,0,0],"id":51,"left_children":[1,3,-1,-1,-1],"loss_changes":[2.378447E0,7.414936E-1,0E0,0E0,0E0],"parents":[2147483647,0,0,1,1],"right_children":[2,4,-1,-1,-1],"split_conditions":[3.2409593E-2,-2.8668436E-1,-2.6161596E-2,2.6857397E-2,-2.3761492E-3],"split_indices":[0,2,0,0,0],"split_type":[0,0,0,0,0],"sum_hessian":[1.2340573E1,7.9130926E0,4.4274807E0,4.629976E0,3.2831166E0],"tree_param":{"num_deleted":"0","num_feature":"9","num_nodes":"5","size_leaf_vector":"1"}},{"base_weights":[-1.599732E-3,3.0816197E-2,-2.5687987E-1,-3.6440812E-2,6.8127885E-3],"categories":[],"categories_nodes":[],"categories_segments":[],"categories_sizes":[],"default_left":[0,0,0,0,0],"id":52,"left_children":[1,-1,3,-1,-1],"loss_changes":[2.2470627E0,0E0,1.9687725E0,0E0,0E0],"parents":[2147483647,0,0,2,2],"right_children":[2,-1,4,-1,-1],"split_conditions":[-7.299681E-1,3.0816197E-2,-2.4248657E-1,-3.6440812E-2,6.8127885E-3],"split_indices":[0,0,4,0,0],"split_type":[0,0,0,0,0],"sum_hessian":[1.2241369E1,3.1652796E0,9.07609E0,3.7366295E0,5.33946E0],"tree_param":{"num_deleted":"0","num_feature":"9","num_nodes":"5","size_leaf_vector":"1"}},{"base_weights":[-1.5201684E-3,3.0100387E-1,-2.5303844E-2,3.0036164E-2,1.6269408E-3],"categories":[],"categories_nodes":[],"categories_segments":[],"categories_sizes":[],"default_left":[0,0,0,0,0],"id":53,"left_children":[1,3,-1,-1,-1],"loss_changes":[2.1539154E0,6.905368E-1,0E0,0E0,0E0],"parents":[2147483647,0,0,1,1],"right_children":[2,4,-1,-1,-1],"split_conditions":[3.2409593E-2,-7.299681E-1,-2.5303844E-2,3.0036164E-2,1.6269408E-3],"split_indices":[0,0,0,0,0],"split_type":[0,0,0,0,0],"sum_hessian":[1.2113059E1,7.82484E0,4.288219E0,3.1124368E0,4.7124033E0],"tree_param":{"num_deleted":"0","num_feature":"9","num_nodes":"5","size_leaf_vector":"1"}},{"base_weights":[-9.988424E-4,2.911872E-1,-2.4709059E-2,2.5247663E-2,-3.0167256E-3],"categories":[],"categories_nodes":[],"categories_segments":[],"categories_sizes":[],"default_left":[0,0,0,0,0],"id":54,"left_children":[1,3,-1,-1,-1],"loss_changes":[2.0137289E0,6.900429E-1,0E0,0E0,0E0],"parents":[2147483647,0,0,1,1],"right_children":[2,4,-1,-1,-1],"split_conditions":[3.2409593E-2,-2.8668436E-1,-2.4709059E-2,2.5247663E-2,-3.0167256E-3],"split_indices":[0,2,0,0,0],"split_type":[0,0,0,0,0],"sum_hessian":[1.1975826E1,7.7775745E0,4.198252E0,4.5650287E0,3.2125459E0],"tree_param":{"num_deleted":"0","num_feature":"9","num_nodes":"5","size_leaf_vector":"1"}},{"base_weights":[-1.2289757E-3,2.895672E-2,-2.3940419E-1,-3.5558723E-2,7.1351114E-3],"categories":[],"categories_nodes":[],"categories_segments":[],"categories_sizes":[],"default_left":[0,0,0,0,0],"id":55,"left_children":[1,-1,3,-1,-1],"loss_changes":[1.9198439E0,0E0,1.876019E0,0E0,0E0],"parents":[2147483647,0,0,2,2],"right_children":[2,-1,4,-1,-1],"split_conditions":[-7.299681E-1,2.895672E-2,-2.4248657E-1,-3.5558723E-2,7.1351114E-3],"split_indices":[0,0,4,0,0],"split_type":[0,0,0,0,0],"sum_hessian":[1.1885918E1,3.0419724E0,8.8439455E0,3.5722494E0,5.271696E0],"tree_param":{"num_deleted":"0","num_feature":"9","num_nodes":"5","size_leaf_vector":"1"}},{"base_weights":[-1.21306E-3,2.7692384E-1,-2.388667E-2,2.4083823E-2,-3.060647E-3],"categories":[],"categories_nodes":[],"categories_segments":[],"categories_sizes":[],"default_left":[0,0,0,0,0],"id":56,"left_children":[1,3,-1,-1,-1],"loss_changes":[1.824734E0,6.315606E-1,0E0,0E0,0E0],"parents":[2147483647,0,0,1,1],"right_children":[2,4,-1,-1,-1],"split_conditions":[3.2409593E-2,-2.8668436E-1,-2.388667E-2,2.4083823E-2,-3.060647E-3],"split_indices":[0,2,0,0,0],"split_type":[0,0,0,0,0],"sum_hessian":[1.176947E1,7.6961937E0,4.0732765E0,4.5291476E0,3.1670456E0],"tree_param":{"num_deleted":"0","num_feature":"9","num_nodes":"5","size_leaf_vector":"1"}},{"base_weights":[-1.4607394E-3,-2.608626E-1,2.3845064E-2,-2.7603421E-2,7.045127E-3],"categories":[],"categories_nodes":[],"categories_segments":[],"categories_sizes":[],"default_left":[0,0,0,0,0],"id":57,"left_children":[1,3,-1,-1,-1],"loss_changes":[1.6984092E0,1.1156652E0,0E0,0E0,0E0],"parents":[2147483647,0,0,1,1],"right_children":[2,4,-1,-1,-1],"split_conditions":[9.612842E-2,1.221703E-1,2.3845064E-2,-2.7603421E-2,7.045127E-3],"split_indices":[6,1,0,0,0],"split_type":[0,0,0,0,0],"sum_hessian":[1.1684576E1,7.871024E0,3.8135524E0,4.346502E0,3.524522E0],"tree_param":{"num_deleted":"0","num_feature":"9","num_nodes":"5","size_leaf_vector":"1"}},{"base_weights":[-1.2089025E-3,2.6464894E-1,-2.3203423E-2,2.3291154E-2,-3.2909922E-3],"categories":[],"categories_nodes":[],"categories_segments":[],"categories_sizes":[],"default_left":[0,0,0,0,0],"id":58,"left_children":[1,3,-1,-1,-1],"loss_changes":[1.6781245E0,6.067144E-1,0E0,0E0,0E0],"parents":[2147483647,0,0,1,1],"right_children":[2,4,-1,-1,-1],"split_conditions":[3.2409593E-2,-2.8668436E-1,-2.3203423E-2,2.3291154E-2,-3.2909922E-3],"split_indices":[0,2,0,0,0],"split_type":[0,0,0,0,0],"sum_hessian":[1.1639154E1,7.664843E0,3.9743116E0,4.509864E0,3.1549792E0],"tree_param":{"num_deleted":"0","num_feature":"9","num_nodes":"5","size_leaf_vector":"1"}},{"base_weights":[-1.4808737E-3,-2.5428623E-1,2.3063825E-2,-2.6927704E-2,6.6538514E-3],"categories":[],"categories_nodes":[],"categories_segments":[],"categories_sizes":[],"default_left":[0,0,0,0,0],"id":59,"left_children":[1,3,-1,-1,-1],"loss_changes":[1.5864327E0,1.0369347E0,0E0,0E0,0E0],"parents":[2147483647,0,0,1,1],"right_children":[2,4,-1,-1,-1],"split_conditions":[9.612842E-2,1.221703E-1,2.3063825E-2,-2.6927704E-2,6.6538514E-3],"split_indices":[6,1,0,0,0],"split_type":[0,0,0,0,0],"sum_hessian":[1.1558059E1,7.765983E0,3.7920756E0,4.253921E0,3.5120623E0],"tree_param":{"num_deleted":"0","num_feature":"9","num_nodes":"5","size_leaf_vector":"1"}},{"base_weights":[-1.2603208E-3,2.529939E-1,-2.2539588E-2,2.2534182E-2,-3.5024073E-3],"categories":[],"categories_nodes":[],"categories_segments":[],"categories_sizes":[],"default_left":[0,0,0,0,0],"id":60,"left_children":[1,3,-1,-1,-1],"loss_changes":[1.5444876E0,5.8298457E-1,0E0,0E0,0E0],"parents":[2147483647,0,0,1,1],"right_children":[2,4,-1,-1,-1],"split_conditions":[3.2409593E-2,-2.8668436E-1,-2.2539588E-2,2.2534182E-2,-3.5024073E-3],"split_indices":[0,2,0,0,0],"split_type":[0,0,0,0,0],"sum_hessian":[1.1515304E1,7.6344666E0,3.8808367E0,4.4910116E0,3.143455E0],"tree_param":{"num_deleted":"0","num_feature":"9","num_nodes":"5","size_leaf_vector":"1"}},{"base_weights":[-1.551947E-3,-2.4797864E-1,2.2316534E-2,-2.6267199E-2,6.280774E-3],"categories":[],"categories_nodes":[],"categories_segments":[],"categories_sizes":[],"default_left":[0,0,0,0,0],"id":61,"left_children":[1,3,-1,-1,-1],"loss_changes":[1.4834415E0,9.639967E-1,0E0,0E0,0E0],"parents":[2147483647,0,0,1,1],"right_children":[2,4,-1,-1,-1],"split_conditions":[9.612842E-2,1.221703E-1,2.2316534E-2,-2.6267199E-2,6.280774E-3],"split_indices":[6,1,0,0,0],"split_type":[0,0,0,0,0],"sum_hessian":[1.1437781E1,7.666162E0,3.7716198E0,4.166593E0,3.4995687E0],"tree_param":{"num_deleted":"0","num_feature":"9","num_nodes":"5","size_leaf_vector":"1"}},{"base_weights":[-1.358266E-3,2.4192573E-1,-2.1894662E-2,-3.2739174E-3,2.227044E-2],"categories":[],"categories_nodes":[],"categories_segments":[],"categories_sizes":[],"default_left":[0,0,0,0,0],"id":62,"left_children":[1,3,-1,-1,-1],"loss_changes":[1.4225773E0,5.6742E-1,0E0,0E0,0E0],"parents":[2147483647,0,0,1,1],"right_children":[2,4,-1,-1,-1],"split_conditions":[3.2409593E-2,-7.3661156E-2,-2.1894662E-2,-3.2739174E-3,2.227044E-2],"split_indices":[0,4,0,0,0],"split_type":[0,0,0,0,0],"sum_hessian":[1.1397508E1,7.604995E0,3.7925127E0,3.2991476E0,4.305847E0],"tree_param":{"num_deleted":"0","num_feature":"9","num_nodes":"5","size_leaf_vector":"1"}},{"base_weights":[-1.585127E-3,-2.3997004E-1,2.1447163E-2,-2.549654E-2,5.973833E-3],"categories":[],"categories_nodes":[],"categories_segments":[],"categories_sizes":[],"default_left":[0,0,0,0,0],"id":63,"left_children":[1,3,-1,-1,-1],"loss_changes":[1.36631E0,8.9196026E-1,0E0,0E0,0E0],"parents":[2147483647,0,0,1,1],"right_children":[2,4,-1,-1,-1],"split_conditions":[9.612842E-2,1.221703E-1,2.1447163E-2,-2.549654E-2,5.973833E-3],"split_indices":[6,1,0,0,0],"split_type":[0,0,0,0,0],"sum_hessian":[1.1309834E1,7.564153E0,3.7456806E0,4.0807047E0,3.4834485E0],"tree_param":{"num_deleted":"0","num_feature":"9","num_nodes":"5","size_leaf_vector":"1"}},{"base_weights":[-1.4164938E-3,-2.0736855E-2,2.4389414E-1,5.436655E-4,2.4376748E-2],"categories":[],"categories_nodes":[],"categories_segments":[],"categories_sizes":[],"default_left":[0,0,0,0,0],"id":64,"left_children":[1,-1,3,-1,-1],"loss_changes":[1.3454479E0,0E0,4.676788E-1,0E0,0E0],"parents":[2147483647,0,0,2,2],"right_children":[2,-1,4,-1,-1],"split_conditions":[-2.4248657E-1,-2.0736855E-2,4.7026685E-1,5.436655E-4,2.4376748E-2],"split_indices":[4,0,3,0,0],"split_type":[0,0,0,0,0],"sum_hessian":[1.12721405E1,3.9411275E0,7.331013E0,4.281125E0,3.0498884E0],"tree_param":{"num_deleted":"0","num_feature":"9","num_nodes":"5","size_leaf_vector":"1"}},{"base_weights":[-1.0520143E-3,2.3187356E-1,-2.121508E-2,2.142737E-2,-4.245089E-3],"categories":[],"categories_nodes":[],"categories_segments":[],"categories_sizes":[],"default_left":[0,0,0,0,0],"id":65,"left_children":[1,3,-1,-1,-1],"loss_changes":[1.3048902E0,5.684725E-1,0E0,0E0,0E0],"parents":[2147483647,0,0,1,1],"right_children":[2,4,-1,-1,-1],"split_conditions":[3.2409593E-2,-2.8668436E-1,-2.121508E-2,2.142737E-2,-4.245089E-3],"split_indices":[0,2,0,0,0],"split_type":[0,0,0,0,0],"sum_hessian":[1.1238149E1,7.540544E0,3.6976047E0,4.434492E0,3.106052E0],"tree_param":{"num_deleted":"0","num_feature":"9","num_nodes":"5","size_leaf_vector":"1"}},{"base_weights":[-1.3931947E-3,-2.3442659E-1,2.083108E-2,-2.4824552E-2,5.5335234E-3],"categories":[],"categories_nodes":[],"categories_segments":[],"categories_sizes":[],"default_left":[0,0,0,0,0],"id":66,"left_children":[1,3,-1,-1,-1],"loss_changes":[1.2829218E0,8.193488E-1,0E0,0E0,0E0],"parents":[2147483647,0,0,1,1],"right_children":[2,4,-1,-1,-1],"split_conditions":[9.612842E-2,1.221703E-1,2.083108E-2,-2.4824552E-2,5.5335234E-3],"split_indices":[6,1,0,0,0],"split_type":[0,0,0,0,0],"sum_hessian":[1.1167513E1,7.45225E0,3.7152631E0,3.9863455E0,3.4659045E0],"tree_param":{"num_deleted":"0","num_feature":"9","num_nodes":"5","size_leaf_vector":"1"}},{"base_weights":[-1.2588912E-3,-2.004771E-2,2.3396425E-1,-2.3156162E-3,2.043285E-2],"categories":[],"categories_nodes":[],"categories_segments":[],"categories_sizes":[],"default_left":[0,0,0,0,0],"id":67,"left_children":[1,-1,3,-1,-1],"loss_changes":[1.2344357E0,0E0,4.2379034E-1,0E0,0E0],"parents":[2147483647,0,0,2,2],"right_children":[2,-1,4,-1,-1],"split_conditions":[-2.4248657E-1,-2.004771E-2,-4.758422E-1,-2.3156162E-3,2.043285E-2],"split_indices":[4,0,0,0,0],"split_type":[0,0,0,0,0],"sum_hessian":[1.1132058E1,3.8631523E0,7.2689056E0,3.0731862E0,4.1957197E0],"tree_param":{"num_deleted":"0","num_feature":"9","num_nodes":"5","size_leaf_vector":"1"}},{"base_weights":[-1.4250549E-3,2.2371118E-1,-2.073477E-2,2.0633373E-2,-4.076358E-3],"categories":[],"categories_nodes":[],"categories_segments":[],"categories_sizes":[],"default_left":[0,0,0,0,0],"id":68,"left_children":[1,3,-1,-1,-1],"loss_changes":[1.2221295E0,5.2430826E-1,0E0,0E0,0E0],"parents":[2147483647,0,0,1,1],"right_children":[2,4,-1,-1,-1],"split_conditions":[3.2409593E-2,-2.8668436E-1,-2.073477E-2,2.0633373E-2,-4.076358E-3],"split_indices":[0,2,0,0,0],"split_type":[0,0,0,0,0],"sum_hessian":[1.113813E1,7.507157E0,3.6309736E0,4.419399E0,3.0877583E0],"tree_param":{"num_deleted":"0","num_feature":"9","num_nodes":"5","size_leaf_vector":"1"}},{"base_weights":[-1.7606795E-3,-2.306297E-1,2.0327127E-2,3.6636465E-3,-2.5967062E-2],"categories":[],"categories_nodes":[],"categories_segments":[],"categories_sizes":[],"default_left":[0,0,0,0,0],"id":69,"left_children":[1,3,-1,-1,-1],"loss_changes":[1.2216691E0,7.726586E-1,0E0,0E0,0E0],"parents":[2147483647,0,0,1,1],"right_children":[2,4,-1,-1,-1],"split_conditions":[9.612842E-2,-1.23837516E-1,2.0327127E-2,3.6636465E-3,-2.5967062E-2],"split_indices":[6,5,0,0,0],"split_type":[0,0,0,0,0],"sum_hessian":[1.1069909E1,7.372501E0,3.6974084E0,3.9552965E0,3.4172044E0],"tree_param":{"num_deleted":"0","num_feature":"9","num_nodes":"5","size_leaf_vector":"1"}},{"base_weights":[-1.8743259E-3,2.162532E-1,-2.0293262E-2,1.9999424E-2,-4.0310896E-3],"categories":[],"categories_nodes":[],"categories_segments":[],"categories_sizes":[],"default_left":[0,0,0,0,0],"id":70,"left_children":[1,3,-1,-1,-1],"loss_changes":[1.150369E0,4.949556E-1,0E0,0E0,0E0],"parents":[2147483647,0,0,1,1],"right_children":[2,4,-1,-1,-1],"split_conditions":[3.2409593E-2,-2.8668436E-1,-2.0293262E-2,1.9999424E-2,-4.0310896E-3],"split_indices":[0,2,0,0,0],"split_type":[0,0,0,0,0],"sum_hessian":[1.1058339E1,7.4828296E0,3.5755098E0,4.4076285E0,3.0752008E0],"tree_param":{"num_deleted":"0","num_feature":"9","num_nodes":"5","size_leaf_vector":"1"}},{"base_weights":[-2.2014007E-3,-2.2499233E-1,1.9697784E-2,-2.3993788E-2,5.3382497E-3],"categories":[],"categories_nodes":[],"categories_segments":[],"categories_sizes":[],"default_left":[0,0,0,0,0],"id":71,"left_children":[1,3,-1,-1,-1],"loss_changes":[1.1470737E0,7.5410116E-1,0E0,0E0,0E0],"parents":[2147483647,0,0,1,1],"right_children":[2,4,-1,-1,-1],"split_conditions":[9.612842E-2,1.221703E-1,1.9697784E-2,-2.3993788E-2,5.3382497E-3],"split_indices":[6,1,0,0,0],"split_type":[0,0,0,0,0],"sum_hessian":[1.0992232E1,7.3121085E0,3.6801236E0,3.882661E0,3.4294474E0],"tree_param":{"num_deleted":"0","num_feature":"9","num_nodes":"5","size_leaf_vector":"1"}},{"base_weights":[-2.0630145E-3,-1.9342627E-2,2.2182588E-1,-3.0395312E-3,1.9944638E-2],"categories":[],"categories_nodes":[],"categories_segments":[],"categories_sizes":[],"default_left":[0,0,0,0,0],"id":72,"left_children":[1,-1,3,-1,-1],"loss_changes":[1.1161608E0,0E0,4.3440735E-1,0E0,0E0],"parents":[2147483647,0,0,2,2],"right_children":[2,-1,4,-1,-1],"split_conditions":[-2.4248657E-1,-1.9342627E-2,-4.758422E-1,-3.0395312E-3,1.9944638E-2],"split_indices":[4,0,0,0,0],"split_type":[0,0,0,0,0],"sum_hessian":[1.0959904E1,3.7636247E0,7.1962786E0,3.0249057E0,4.171373E0],"tree_param":{"num_deleted":"0","num_feature":"9","num_nodes":"5","size_leaf_vector":"1"}},{"base_weights":[-2.2273946E-3,2.0899019E-1,-1.984941E-2,1.9272862E-2,-3.8491E-3],"categories":[],"categories_nodes":[],"categories_segments":[],"categories_sizes":[],"default_left":[0,0,0,0,0],"id":73,"left_children":[1,3,-1,-1,-1],"loss_changes":[1.0807707E0,4.561438E-1,0E0,0E0,0E0],"parents":[2147483647,0,0,1,1],"right_children":[2,4,-1,-1,-1],"split_conditions":[3.2409593E-2,-2.8668436E-1,-1.984941E-2,1.9272862E-2,-3.8491E-3],"split_indices":[0,2,0,0,0],"split_type":[0,0,0,0,0],"sum_hessian":[1.09668865E1,7.4508724E0,3.516014E0,4.392484E0,3.058388E0],"tree_param":{"num_deleted":"0","num_feature":"9","num_nodes":"5","size_leaf_vector":"1"}},{"base_weights":[-2.5467004E-3,-2.214882E-1,1.923804E-2,3.6603082E-3,-2.5097776E-2],"categories":[],"categories_nodes":[],"categories_segments":[],"categories_sizes":[],"default_left":[0,0,0,0,0],"id":74,"left_children":[1,3,-1,-1,-1],"loss_changes":[1.0945611E0,7.1771336E-1,0E0,0E0,0E0],"parents":[2147483647,0,0,1,1],"right_children":[2,4,-1,-1,-1],"split_conditions":[9.612842E-2,-1.23837516E-1,1.923804E-2,3.6603082E-3,-2.5097776E-2],"split_indices":[6,5,0,0,0],"split_type":[0,0,0,0,0],"sum_hessian":[1.0902934E1,7.238952E0,3.6639822E0,3.8902988E0,3.3486536E0],"tree_param":{"num_deleted":"0","num_feature":"9","num_nodes":"5","size_leaf_vector":"1"}},{"base_weights":[-2.6390376E-3,-1.8694863E-2,2.1076444E-1,-3.1379776E-3,1.905495E-2],"categories":[],"categories_nodes":[],"categories_segments":[],"categories_sizes":[],"default_left":[0,0,0,0,0],"id":75,"left_children":[1,-1,3,-1,-1],"loss_changes":[1.0210712E0,0E0,4.0556967E-1,0E0,0E0],"parents":[2147483647,0,0,2,2],"right_children":[2,-1,4,-1,-1],"split_conditions":[-2.4248657E-1,-1.8694863E-2,-4.758422E-1,-3.1379776E-3,1.905495E-2],"split_indices":[4,0,0,0,0],"split_type":[0,0,0,0,0],"sum_hessian":[1.0893137E1,3.7015243E0,7.1916127E0,3.0022068E0,4.189406E0],"tree_param":{"num_deleted":"0","num_feature":"9","num_nodes":"5","size_leaf_vector":"1"}},{"base_weights":[-2.798273E-3,2.0411639E-1,-1.9568002E-2,1.8591208E-2,-3.492459E-3],"categories":[],"categories_nodes":[],"categories_segments":[],"categories_sizes":[],"default_left":[0,0,0,0,0],"id":76,"left_children":[1,3,-1,-1,-1],"loss_changes":[1.0366242E0,4.1293806E-1,0E0,0E0,0E0],"parents":[2147483647,0,0,1,1],"right_children":[2,4,-1,-1,-1],"split_conditions":[3.2409593E-2,-2.8668436E-1,-1.9568002E-2,1.8591208E-2,-3.492459E-3],"split_indices":[0,2,0,0,0],"split_type":[0,0,0,0,0],"sum_hessian":[1.0899899E1,7.422173E0,3.4777253E0,4.3823366E0,3.0398364E0],"tree_param":{"num_deleted":"0","num_feature":"9","num_nodes":"5","size_leaf_vector":"1"}},{"base_weights":[-3.0956138E-3,-2.1780065E-1,1.8791217E-2,-2.324306E-2,5.045434E-3],"categories":[],"categories_nodes":[],"categories_segments":[],"categories_sizes":[],"default_left":[0,0,0,0,0],"id":77,"left_children":[1,3,-1,-1,-1],"loss_changes":[1.044892E0,6.9171786E-1,0E0,0E0,0E0],"parents":[2147483647,0,0,1,1],"right_children":[2,4,-1,-1,-1],"split_conditions":[9.612842E-2,1.221703E-1,1.8791217E-2,-2.324306E-2,5.045434E-3],"split_indices":[6,1,0,0,0],"split_type":[0,0,0,0,0],"sum_hessian":[1.083732E1,7.1890435E0,3.6482763E0,3.791406E0,3.3976376E0],"tree_param":{"num_deleted":"0","num_feature":"9","num_nodes":"5","size_leaf_vector":"1"}},{"base_weights":[-2.9462962E-3,-2.10148E-1,1.8024081E-2,3.6002265E-3,-2.40053E-2],"categories":[],"categories_nodes":[],"categories_segments":[],"categories_sizes":[],"default_left":[0,0,0,0,0],"id":78,"left_children":[1,3,-1,-1,-1],"loss_changes":[9.649017E-1,6.5549195E-1,0E0,0E0,0E0],"parents":[2147483647,0,0,1,1],"right_children":[2,4,-1,-1,-1],"split_conditions":[9.612842E-2,-1.23837516E-1,1.8024081E-2,3.6002265E-3,-2.40053E-2],"split_indices":[6,5,0,0,0],"split_type":[0,0,0,0,0],"sum_hessian":[1.0807611E1,7.151868E0,3.6557436E0,3.855491E0,3.2963767E0],"tree_param":{"num_deleted":"0","num_feature":"9","num_nodes":"5","size_leaf_vector":"1"}},{"base_weights":[-3.03203E-3,1.9725303E-1,-1.9104114E-2,1.8227218E-2,-3.7281883E-3],"categories":[],"categories_nodes":[],"categories_segments":[],"categories_sizes":[],"default_left":[0,0,0,0,0],"id":79,"left_children":[1,3,-1,-1,-1],"loss_changes":[9.7115564E-1,4.082282E-1,0E0,0E0,0E0],"parents":[2147483647,0,0,1,1],"right_children":[2,4,-1,-1,-1],"split_conditions":[3.2409593E-2,-2.8668436E-1,-1.9104114E-2,1.8227218E-2,-3.7281883E-3],"split_indices":[0,2,0,0,0],"split_type":[0,0,0,0,0],"sum_hessian":[1.0799411E1,7.3796926E0,3.4197183E0,4.357006E0,3.0226865E0],"tree_param":{"num_deleted":"0","num_feature":"9","num_nodes":"5","size_leaf_vector":"1"}},{"base_weights":[-3.3306447E-3,-1.8040901E-2,2.0020114E-1,-1.0515657E-3,1.8675176E-2],"categories":[],"categories_nodes":[],"categories_segments":[],"categories_sizes":[],"default_left":[0,0,0,0,0],"id":80,"left_children":[1,-1,3,-1,-1],"loss_changes":[9.263689E-1,0E0,3.1930682E-1,0E0,0E0],"parents":[2147483647,0,0,2,2],"right_children":[2,-1,4,-1,-1],"split_conditions":[-2.4248657E-1,-1.8040901E-2,-2.217163E-1,-1.0515657E-3,1.8675176E-2],"split_indices":[4,0,0,0,0],"split_type":[0,0,0,0,0],"sum_hessian":[1.0739037E1,3.6156504E0,7.123386E0,3.5149517E0,3.6084342E0],"tree_param":{"num_deleted":"0","num_feature":"9","num_nodes":"5","size_leaf_vector":"1"}},{"base_weights":[-3.2511894E-3,1.9175099E-1,-1.875413E-2,1.7464671E-2,-3.305671E-3],"categories":[],"categories_nodes":[],"categories_segments":[],"categories_sizes":[],"default_left":[0,0,0,0,0],"id":81,"left_children":[1,3,-1,-1,-1],"loss_changes":[9.2318344E-1,3.628397E-1,0E0,0E0,0E0],"parents":[2147483647,0,0,1,1],"right_children":[2,4,-1,-1,-1],"split_conditions":[3.2409593E-2,-2.8668436E-1,-1.875413E-2,1.7464671E-2,-3.305671E-3],"split_indices":[0,2,0,0,0],"split_type":[0,0,0,0,0],"sum_hessian":[1.0740246E1,7.36308E0,3.3771658E0,4.350548E0,3.0125322E0],"tree_param":{"num_deleted":"0","num_feature":"9","num_nodes":"5","size_leaf_vector":"1"}},{"base_weights":[-3.5384654E-3,-2.0878302E-1,1.7790196E-2,-2.2392627E-2,4.8325337E-3],"categories":[],"categories_nodes":[],"categories_segments":[],"categories_sizes":[],"default_left":[0,0,0,0,0],"id":82,"left_children":[1,3,-1,-1,-1],"loss_changes":[9.358298E-1,6.3219786E-1,0E0,0E0,0E0],"parents":[2147483647,0,0,1,1],"right_children":[2,4,-1,-1,-1],"split_conditions":[9.612842E-2,1.221703E-1,1.7790196E-2,-2.2392627E-2,4.8325337E-3],"split_indices":[6,1,0,0,0],"split_type":[0,0,0,0,0],"sum_hessian":[1.0681467E1,7.0650997E0,3.6163669E0,3.7015405E0,3.3635592E0],"tree_param":{"num_deleted":"0","num_feature":"9","num_nodes":"5","size_leaf_vector":"1"}},{"base_weights":[-3.3933313E-3,-2.050535E-1,1.7159529E-2,-2.5536863E-2,7.148882E-3],"categories":[],"categories_nodes":[],"categories_segments":[],"categories_sizes":[],"default_left":[0,0,0,0,0],"id":83,"left_children":[1,3,-1,-1,-1],"loss_changes":[8.849197E-1,9.234339E-1,0E0,0E0,0E0],"parents":[2147483647,0,0,1,1],"right_children":[2,4,-1,-1,-1],"split_conditions":[3.1924924E-1,1.221703E-1,1.7159529E-2,-2.5536863E-2,7.148882E-3],"split_indices":[5,1,0,0,0],"split_type":[0,0,0,0,0],"sum_hessian":[1.0654342E1,6.993516E0,3.6608255E0,3.4743822E0,3.5191338E0],"tree_param":{"num_deleted":"0","num_feature":"9","num_nodes":"5","size_leaf_vector":"1"}},{"base_weights":[-3.3875038E-3,-1.738063E-2,1.9069737E-1,-1.4952156E-3,1.8243976E-2],"categories":[],"categories_nodes":[],"categories_segments":[],"categories_sizes":[],"default_left":[0,0,0,0,0],"id":84,"left_children":[1,-1,3,-1,-1],"loss_changes":[8.433558E-1,0E0,3.21514E-1,0E0,0E0],"parents":[2147483647,0,0,2,2],"right_children":[2,-1,4,-1,-1],"split_conditions":[-2.4248657E-1,-1.738063E-2,-2.217163E-1,-1.4952156E-3,1.8243976E-2],"split_indices":[4,0,0,0,0],"split_type":[0,0,0,0,0],"sum_hessian":[1.0631189E1,3.547817E0,7.083372E0,3.4907072E0,3.592665E0],"tree_param":{"num_deleted":"0","num_feature":"9","num_nodes":"5","size_leaf_vector":"1"}},{"base_weights":[-3.3199857E-3,1.8461417E-1,-1.825585E-2,1.7023321E-2,-3.4340997E-3],"categories":[],"categories_nodes":[],"categories_segments":[],"categories_sizes":[],"default_left":[0,0,0,0,0],"id":85,"left_children":[1,3,-1,-1,-1],"loss_changes":[8.583849E-1,3.518425E-1,0E0,0E0,0E0],"parents":[2147483647,0,0,1,1],"right_children":[2,4,-1,-1,-1],"split_conditions":[3.2409593E-2,-2.8668436E-1,-1.825585E-2,1.7023321E-2,-3.4340997E-3],"split_indices":[0,2,0,0,0],"split_type":[0,0,0,0,0],"sum_hessian":[1.0633072E1,7.3202987E0,3.312773E0,4.3188076E0,3.0014913E0],"tree_param":{"num_deleted":"0","num_feature":"9","num_nodes":"5","size_leaf_vector":"1"}},{"base_weights":[-3.6106822E-3,-2.0088704E-1,1.6924232E-2,3.8379058E-3,-2.326831E-2],"categories":[],"categories_nodes":[],"categories_segments":[],"categories_sizes":[],"default_left":[0,0,0,0,0],"id":86,"left_children":[1,3,-1,-1,-1],"loss_changes":[8.492687E-1,6.209662E-1,0E0,0E0,0E0],"parents":[2147483647,0,0,1,1],"right_children":[2,4,-1,-1,-1],"split_conditions":[9.612842E-2,-1.23837516E-1,1.6924232E-2,3.8379058E-3,-2.326831E-2],"split_indices":[6,5,0,0,0],"split_type":[0,0,0,0,0],"sum_hessian":[1.0576568E1,6.969967E0,3.606601E0,3.7466168E0,3.2233498E0],"tree_param":{"num_deleted":"0","num_feature":"9","num_nodes":"5","size_leaf_vector":"1"}},{"base_weights":[-3.6748238E-3,1.7882904E-1,-1.7876139E-2,-1.956028E-3,1.6084183E-2],"categories":[],"categories_nodes":[],"categories_segments":[],"categories_sizes":[],"default_left":[0,0,0,0,0],"id":87,"left_children":[1,3,-1,-1,-1],"loss_changes":[8.111238E-1,2.7099985E-1,0E0,0E0,0E0],"parents":[2147483647,0,0,1,1],"right_children":[2,4,-1,-1,-1],"split_conditions":[3.2409593E-2,-7.3661156E-2,-1.7876139E-2,-1.956028E-3,1.6084183E-2],"split_indices":[0,4,0,0,0],"split_type":[0,0,0,0,0],"sum_hessian":[1.057021E1,7.29981E0,3.270401E0,3.1777496E0,4.1220603E0],"tree_param":{"num_deleted":"0","num_feature":"9","num_nodes":"5","size_leaf_vector":"1"}},{"base_weights":[-3.8667768E-3,-1.9621935E-1,1.618363E-2,-2.4663238E-2,6.917008E-3],"categories":[],"categories_nodes":[],"categories_segments":[],"categories_sizes":[],"default_left":[0,0,0,0,0],"id":88,"left_children":[1,3,-1,-1,-1],"loss_changes":[7.884752E-1,8.5055625E-1,0E0,0E0,0E0],"parents":[2147483647,0,0,1,1],"right_children":[2,4,-1,-1,-1],"split_conditions":[3.1924924E-1,1.221703E-1,1.618363E-2,-2.4663238E-2,6.917008E-3],"split_indices":[5,1,0,0,0],"split_type":[0,0,0,0,0],"sum_hessian":[1.0506816E1,6.872035E0,3.6347804E0,3.3888266E0,3.4832087E0],"tree_param":{"num_deleted":"0","num_feature":"9","num_nodes":"5","size_leaf_vector":"1"}},{"base_weights":[-3.863054E-3,-1.905509E-1,1.5884139E-2,4.163989E-3,-2.2604583E-2],"categories":[],"categories_nodes":[],"categories_segments":[],"categories_sizes":[],"default_left":[0,0,0,0,0],"id":89,"left_children":[1,3,-1,-1,-1],"loss_changes":[7.499912E-1,6.0283023E-1,0E0,0E0,0E0],"parents":[2147483647,0,0,1,1],"right_children":[2,4,-1,-1,-1],"split_conditions":[9.612842E-2,-1.23837516E-1,1.5884139E-2,4.163989E-3,-2.2604583E-2],"split_indices":[6,5,0,0,0],"split_type":[0,0,0,0,0],"sum_hessian":[1.0485448E1,6.8916078E0,3.5938406E0,3.6996691E0,3.1919384E0],"tree_param":{"num_deleted":"0","num_feature":"9","num_nodes":"5","size_leaf_vector":"1"}},{"base_weights":[-3.918838E-3,1.7200693E-1,-1.7397316E-2,-1.7756664E-3,1.5387021E-2],"categories":[],"categories_nodes":[],"categories_segments":[],"categories_sizes":[],"default_left":[0,0,0,0,0],"id":90,"left_children":[1,3,-1,-1,-1],"loss_changes":[7.5467783E-1,2.4373762E-1,0E0,0E0,0E0],"parents":[2147483647,0,0,1,1],"right_children":[2,4,-1,-1,-1],"split_conditions":[3.2409593E-2,-7.3661156E-2,-1.7397316E-2,-1.7756664E-3,1.5387021E-2],"split_indices":[0,4,0,0,0],"split_type":[0,0,0,0,0],"sum_hessian":[1.048035E1,7.2651696E0,3.2151794E0,3.1648512E0,4.1003184E0],"tree_param":{"num_deleted":"0","num_feature":"9","num_nodes":"5","size_leaf_vector":"1"}},{"base_weights":[-4.103119E-3,-1.6307268E-2,1.7609778E-1,-2.6524195E-3,1.8081777E-2],"categories":[],"categories_nodes":[],"categories_segments":[],"categories_sizes":[],"default_left":[0,0,0,0,0],"id":91,"left_children":[1,-1,3,-1,-1],"loss_changes":[7.201491E-1,0E0,3.5810846E-1,0E0,0E0],"parents":[2147483647,0,0,2,2],"right_children":[2,-1,4,-1,-1],"split_conditions":[-2.4248657E-1,-1.6307268E-2,-2.217163E-1,-2.6524195E-3,1.8081777E-2],"split_indices":[4,0,0,0,0],"split_type":[0,0,0,0,0],"sum_hessian":[1.0419772E1,3.4479475E0,6.9718246E0,3.4388268E0,3.532998E0],"tree_param":{"num_deleted":"0","num_feature":"9","num_nodes":"5","size_leaf_vector":"1"}},{"base_weights":[-4.017058E-3,1.6804296E-1,-1.7105488E-2,-1.7005842E-3,1.5327207E-2],"categories":[],"categories_nodes":[],"categories_segments":[],"categories_sizes":[],"default_left":[0,0,0,0,0],"id":92,"left_children":[1,3,-1,-1,-1],"loss_changes":[7.220151E-1,2.4105525E-1,0E0,0E0,0E0],"parents":[2147483647,0,0,1,1],"right_children":[2,4,-1,-1,-1],"split_conditions":[3.2409593E-2,-5.9628916E-1,-1.7105488E-2,-1.7005842E-3,1.5327207E-2],"split_indices":[0,2,0,0,0],"split_type":[0,0,0,0,0],"sum_hessian":[1.0423422E1,7.2412286E0,3.1821928E0,3.2517667E0,3.989462E0],"tree_param":{"num_deleted":"0","num_feature":"9","num_nodes":"5","size_leaf_vector":"1"}},{"base_weights":[-4.173076E-3,-1.8488868E-1,1.5321699E-2,4.1252654E-3,-2.2035E-2],"categories":[],"categories_nodes":[],"categories_segments":[],"categories_sizes":[],"default_left":[0,0,0,0,0],"id":93,"left_children":[1,3,-1,-1,-1],"loss_changes":[6.953565E-1,5.710685E-1,0E0,0E0,0E0],"parents":[2147483647,0,0,1,1],"right_children":[2,4,-1,-1,-1],"split_conditions":[9.612842E-2,-1.23837516E-1,1.5321699E-2,4.1252654E-3,-2.2035E-2],"split_indices":[6,5,0,0,0],"split_type":[0,0,0,0,0],"sum_hessian":[1.03786335E1,6.817099E0,3.5615346E0,3.6643302E0,3.1527686E0],"tree_param":{"num_deleted":"0","num_feature":"9","num_nodes":"5","size_leaf_vector":"1"}},{"base_weights":[-4.216496E-3,1.6294773E-1,-1.6753813E-2,-1.3968226E-3,1.4640252E-2],"categories":[],"categories_nodes":[],"categories_segments":[],"categories_sizes":[],"default_left":[0,0,0,0,0],"id":94,"left_children":[1,3,-1,-1,-1],"loss_changes":[6.8368065E-1,2.1216232E-1,0E0,0E0,0E0],"parents":[2147483647,0,0,1,1],"right_children":[2,4,-1,-1,-1],"split_conditions":[3.2409593E-2,-5.9628916E-1,-1.6753813E-2,-1.3968226E-3,1.4640252E-2],"split_indices":[0,2,0,0,0],"split_type":[0,0,0,0,0],"sum_hessian":[1.0374155E1,7.2291746E0,3.1449804E0,3.2446134E0,3.9845614E0],"tree_param":{"num_deleted":"0","num_feature":"9","num_nodes":"5","size_leaf_vector":"1"}},{"base_weights":[-4.365283E-3,-1.5770895E-2,1.6866656E-1,-3.274054E-3,1.8051019E-2],"categories":[],"categories_nodes":[],"categories_segments":[],"categories_sizes":[],"default_left":[0,0,0,0,0],"id":95,"left_children":[1,-1,3,-1,-1],"loss_changes":[6.6305035E-1,0E0,3.809054E-1,0E0,0E0],"parents":[2147483647,0,0,2,2],"right_children":[2,-1,4,-1,-1],"split_conditions":[-2.4248657E-1,-1.5770895E-2,-2.217163E-1,-3.274054E-3,1.8051019E-2],"split_indices":[4,0,0,0,0],"split_type":[0,0,0,0,0],"sum_hessian":[1.0330865E1,3.3985445E0,6.9323206E0,3.423977E0,3.508344E0],"tree_param":{"num_deleted":"0","num_feature":"9","num_nodes":"5","size_leaf_vector":"1"}},{"base_weights":[-4.2745466E-3,-1.8305433E-1,1.4832516E-2,-2.3449639E-2,6.7184493E-3],"categories":[],"categories_nodes":[],"categories_segments":[],"categories_sizes":[],"default_left":[0,0,0,0,0],"id":96,"left_children":[1,3,-1,-1,-1],"loss_changes":[6.6415024E-1,7.6456285E-1,0E0,0E0,0E0],"parents":[2147483647,0,0,1,1],"right_children":[2,4,-1,-1,-1],"split_conditions":[3.1924924E-1,1.221703E-1,1.4832516E-2,-2.3449639E-2,6.7184493E-3],"split_indices":[5,1,0,0,0],"split_type":[0,0,0,0,0],"sum_hessian":[1.0335601E1,6.729369E0,3.6062315E0,3.289054E0,3.4403155E0],"tree_param":{"num_deleted":"0","num_feature":"9","num_nodes":"5","size_leaf_vector":"1"}},{"base_weights":[-4.276714E-3,1.5782528E-1,-1.6388541E-2,-1.2176812E-3,1.4053549E-2],"categories":[],"categories_nodes":[],"categories_segments":[],"categories_sizes":[],"default_left":[0,0,0,0,0],"id":97,"left_children":[1,3,-1,-1,-1],"loss_changes":[6.451482E-1,1.9126531E-1,0E0,0E0,0E0],"parents":[2147483647,0,0,1,1],"right_children":[2,4,-1,-1,-1],"split_conditions":[3.2409593E-2,-5.9628916E-1,-1.6388541E-2,-1.2176812E-3,1.4053549E-2],"split_indices":[0,2,0,0,0],"split_type":[0,0,0,0,0],"sum_hessian":[1.0316336E1,7.213696E0,3.10264E0,3.234674E0,3.979022E0],"tree_param":{"num_deleted":"0","num_feature":"9","num_nodes":"5","size_leaf_vector":"1"}},{"base_weights":[-4.4256556E-3,-1.5223222E-2,1.6116215E-1,-3.5802934E-3,1.769926E-2],"categories":[],"categories_nodes":[],"categories_segments":[],"categories_sizes":[],"default_left":[0,0,0,0,0],"id":98,"left_children":[1,-1,3,-1,-1],"loss_changes":[6.092219E-1,0E0,3.8077497E-1,0E0,0E0],"parents":[2147483647,0,0,2,2],"right_children":[2,-1,4,-1,-1],"split_conditions":[-2.4248657E-1,-1.5223222E-2,-2.217163E-1,-3.5802934E-3,1.769926E-2],"split_indices":[4,0,0,0,0],"split_type":[0,0,0,0,0],"sum_hessian":[1.027461E1,3.3556364E0,6.9189734E0,3.419608E0,3.4993653E0],"tree_param":{"num_deleted":"0","num_feature":"9","num_nodes":"5","size_leaf_vector":"1"}},{"base_weights":[-4.3393597E-3,1.5432326E-1,-1.6135963E-2,-1.128819E-3,1.3692548E-2],"categories":[],"categories_nodes":[],"categories_segments":[],"categories_sizes":[],"default_left":[0,0,0,0,0],"id":99,"left_children":[1,3,-1,-1,-1],"loss_changes":[6.1960185E-1,1.796656E-1,0E0,0E0,0E0],"parents":[2147483647,0,0,1,1],"right_children":[2,4,-1,-1,-1],"split_conditions":[3.2409593E-2,-5.9628916E-1,-1.6135963E-2,-1.128819E-3,1.3692548E-2],"split_indices":[0,2,0,0,0],"split_type":[0,0,0,0,0],"sum_hessian":[1.0279796E1,7.204676E0,3.0751195E0,3.2321906E0,3.9724855E0],"tree_param":{"num_deleted":"0","num_feature":"9","num_nodes":"5","size_leaf_vector":"1"}}]},"name":"gbtree"},"learner_model_param":{"base_score":"3.2989466E-1","boost_from_average":"1","num_class":"0","num_feature":"9","num_target":"1"},"objective":{"name":"binary:logistic","reg_loss_param":{"scale_pos_weight":"1"}}},"version":[2,0,3]}